svm_type c_svc
kernel_type rbf
gamma 2.93234e-06
nr_class 2
total_sv 5283
rho 3.82761
label 1 -1
nr_sv 2718 2565
SV
6.594369450080481 12548:42.072986 48269:44.916836 61521:18.412334 83597:46.698917 113284:58.485093 129716:80.059557 147156:32.37961 164990:89.961659 193918:89.961659 212758:39.136073 241959:41.501252 272720:53.891259 276173:12.572871 318096:52.334101 
35.62660387312422 49086:51.689293 67194:54.119278 77038:79.584249 120890:19.632992 124056:46.528486 134048:28.414269 167386:55.194754 182087:32.379144 212990:15.681799 268043:31.244059 277617:30.982901 333229:55.453842 
10.81143841434736 83530:31.764607 186699:67.088151 205669:71.520405 242062:33.766591 267903:37.453902 271227:37.374571 272883:88.740173 276175:23.59891 299509:65.929982 312406:48.27725 316000:53.761615 
29.34508730786555 38416:43.9663 61975:72.212326 78950:50.96462 167746:28.881602 170513:41.444914 177777:51.46829 193240:51.50098 201605:20.635615 238078:27.809185 264611:16.191141 276173:12.572871 297018:66.969689 303930:56.584311 306704:39.176806 
18.14385932230176 31270:50.221287 49086:51.689293 102836:58.148844 106429:27.675296 157640:20.177571 159593:54.639678 235224:54.175521 265228:81.850363 275720:62.714401 310393:45.934031 312394:17.407562 322189:44.920692 
1.102318909591728 44290:67.896377 49086:88.610217 75606:118.63104 85710:130.41281 277617:53.113545 286278:70.239555 333545:57.612118 
1.715940774784225 23498:10.820293 25437:14.789892 37532:9.6321529 41136:9.8980169 48269:8.7338292 49086:34.459529 56683:10.939074 57249:9.7747281 61964:17.492545 78101:15.00399 81534:14.041286 87233:16.52984 87803:8.2759525 120890:3.2721654 121177:11.44156 134045:4.62407 142418:6.6813546 143124:10.4524 143714:10.775487 144839:10.659238 151806:10.514493 165925:8.9353125 167671:14.135944 175199:7.5719513 177805:6.5923323 183491:5.3764939 187257:10.786554 199191:12.723118 201884:31.933389 219160:11.652694 226569:8.0416914 226574:7.8346502 227749:9.7376889 228475:10.16183 230502:7.9222545 243359:11.926804 244059:14.604432 249057:14.440844 251617:16.52984 253164:8.4239076 254692:12.334806 264611:3.1482775 266511:12.031676 267561:6.8692952 277277:13.930115 285320:8.9829563 286987:15.750055 287909:9.3565266 288722:6.209414 290623:10.183253 293564:5.6424313 297952:9.0386911 299699:17.492545 303930:11.002505 307175:9.1487155 312394:5.8025207 312406:7.375691 319398:15.257214 325010:7.4541248 338866:9.077096 
19.1534355282778 9672:26.98713 16077:15.632135 19859:23.760734 21201:31.507296 22228:19.659423 29968:15.489054 38416:18.65237 43280:38.165553 57529:24.84904 71901:8.9397267 80706:34.836424 86575:25.16416 108824:13.859711 123112:38.177978 130693:24.775126 134045:10.08888 134059:16.677947 140420:32.735978 161254:19.413237 166637:19.476109 216477:19.36999 238078:23.595672 276173:5.3339452 279137:29.580058 285320:6.5330591 295059:30.899203 307175:29.941251 310617:38.165553 325216:29.40685 
27.5701064292107 266:20.32366 873:11.59553 12423:8.76413 29781:27.462728 29968:28.396599 36665:10.882985 48269:17.467658 62540:53.612185 82567:20.295459 101389:12.83361 110072:16.277891 124056:15.509495 126178:41.182493 143403:14.187385 145161:29.579784 147156:12.592071 171903:30.00798 173069:28.881688 192158:12.825973 192681:17.01926 215462:22.220868 228004:31.933389 244541:28.082571 252016:13.938952 267561:13.73859 285320:5.9886375 288722:12.418828 303542:7.1546542 304265:8.9145745 307175:9.1487155 310393:15.311344 329403:14.85431 333545:11.202356 
17.26198180237678 49086:77.53394 175723:122.77555 175759:56.211272 193240:90.126716 193350:61.384604 215462:99.993906 238078:48.666074 317192:59.961629 
19.81417833882418 1187:39.945317 13959:37.936987 22946:16.738924 25673:25.750525 35257:18.460768 48269:28.583441 83530:15.882304 87008:17.302256 95840:45.252614 139816:26.193994 157640:11.005948 168242:75.007517 176626:42.101945 201605:13.131755 253607:79.303921 265874:23.190327 303542:11.707616 310154:38.13609 315978:17.132816 317872:49.932702 
11.17920524645365 9332:14.481946 11354:12.189421 17363:12.187777 19859:17.82055 24992:7.9648648 29968:11.616791 48269:28.583441 49086:42.29124 49810:14.504605 51135:10.021729 56683:17.900303 65908:18.322802 83169:15.215307 103902:11.352798 110738:14.744567 123326:17.376983 144971:12.063082 157640:5.5029738 158515:13.841691 164233:11.846609 167746:9.1896006 177848:24.310292 202208:12.652995 212335:28.624164 230503:19.435411 246613:21.308538 270788:11.253702 275879:14.82179 285320:24.498972 290179:20.543828 292279:20.129461 307175:14.970625 316771:18.274444 336716:13.554429 340468:19.475638 
40 36987:29.08879 56683:27.159081 77378:16.52137 82567:25.194363 89378:10.068071 102489:22.401924 106235:15.79869 106429:11.451847 110072:20.207037 126543:28.31933 127980:18.623953 138507:22.709721 144036:23.370763 154599:25.091422 157640:16.698679 165583:20.074317 172493:25.699892 196251:11.601349 212990:6.4890201 243096:15.231436 264611:7.816413 275720:25.950787 288837:27.654901 290743:26.439237 303542:17.763279 306185:20.273272 340468:29.549244 
39.53496807661536 10730:13.986533 22946:6.5760058 33323:12.212304 36670:14.578242 40855:64.365096 49086:44.305109 72112:57.872533 81953:20.014889 83530:6.2394765 89483:13.24729 120890:8.4141396 123534:7.317582 134045:5.9452328 134279:12.560626 135122:19.015575 137776:14.621273 153356:15.773986 172918:12.167659 183178:15.816005 189231:19.254381 195435:15.334463 198125:7.7156882 201605:5.1589038 215721:7.7413824 224845:20.014889 226569:10.339318 258201:9.7580961 261485:8.6354853 264611:8.0955706 272989:11.209764 276173:3.1432177 276174:6.0087171 276175:4.6355001 277220:18.724402 279720:42.505304 298975:42.241619 303542:4.5994206 312394:3.7301919 331223:9.0421714 339493:9.7825682 340895:16.246651 
39.53119248186169 2582:6.2145826 2886:7.1635599 4764:6.1718862 9332:5.6389877 22946:3.2589055 24992:6.2027266 25437:9.4236479 28235:7.2246155 29968:9.0467043 31846:9.1080064 34266:13.847695 40645:8.3332553 44290:4.2059703 46602:6.0382223 48269:11.129835 48441:6.1686857 51259:5.0911654 60899:5.5665341 61223:6.6433947 63011:8.0250193 65396:8.8758256 68155:6.994057 68878:9.9188832 69379:6.600738 70214:6.8113208 70747:11.145692 82965:7.1935612 83597:5.7857065 88971:9.2012458 89378:2.5838413 94822:5.3923386 103902:4.4205584 112946:8.692074 115585:8.6384239 118539:9.3054786 120890:6.2547586 120898:7.5993798 126127:3.8998026 127559:7.7968519 128018:6.0164377 128568:4.4335038 132723:7.8380201 135138:16.392843 139499:7.9744366 142635:6.5355276 151116:6.109976 151170:17.89332 156770:9.4236479 157640:2.1427509 170101:5.7140755 171871:6.7789012 172493:6.5955476 172719:8.6384239 172918:6.0299901 173697:11.145692 176546:6.3847212 180275:4.1645335 188951:6.5903875 189878:7.6321597 195010:9.5600645 199095:7.9501897 201605:2.5566249 212990:1.6653238 219747:19.837766 220724:4.9507061 225148:8.8102434 226569:5.1239096 227238:4.3063863 242062:3.2870132 244724:3.4080537 251997:6.1466001 252016:4.4407279 264294:5.4585344 265874:4.514931 267903:7.2919101 272829:7.6321597 276173:1.5577008 276174:8.9333139 285320:11.447307 287383:8.7491877 290077:3.9382685 294127:5.6250511 294853:6.994057 295551:7.7198507 299509:32.089814 303930:7.0104456 307175:2.914635 308528:9.4236479 311058:6.8871221 311687:5.3172218 312394:1.8485907 
19.11381879046604 13725:41.9884 29261:108.19532 48269:57.166882 65973:43.985791 96446:40.955908 148711:52.437155 220002:104.50927 234101:55.813034 265435:66.701245 270158:78.932812 307175:29.941251 
18.07182658506463 21850:41.639296 30312:30.793406 46627:27.724394 49086:56.38832 50502:33.957583 56683:35.800607 59699:19.832983 102499:21.94836 134072:27.828573 141243:52.254637 180563:41.639296 191203:33.957583 202208:25.30599 203009:50.946991 204796:19.575458 212990:8.5537084 233714:24.339544 254184:24.539523 284875:42.267252 326160:37.054459 329338:42.996082 
14.06738191214975 9332:39.82535 48269:39.302231 67118:29.407332 129954:50.32086 147540:41.893676 174522:50.189276 186521:30.367263 202208:34.795736 232114:47.114916 239688:21.128742 249932:67.517955 276173:11.001262 291735:37.657193 303930:49.511272 329338:59.119613 338106:29.346743 
40 5577:16.715336 19382:26.974996 29781:17.975604 31270:10.957372 31322:17.545806 35257:22.152922 36363:6.7051499 38831:20.378796 42755:7.8137949 44757:58.295886 48269:22.866753 49086:11.277664 51693:9.0399425 56381:7.2052022 56683:14.320243 82567:13.284301 89378:5.3086194 115539:9.4403287 135638:11.600044 147515:11.139879 152578:11.361811 172493:13.550852 180970:20.901855 191598:16.383843 197570:14.779499 197602:17.799236 198813:15.516708 208730:14.058343 218801:11.483838 226521:6.5160746 256723:14.106092 282097:18.904378 285320:3.9198355 290743:13.940688 304488:9.8796117 306704:9.9722779 310695:10.164833 315462:18.712813 315755:19.409562 315978:6.8531262 326130:32.975534 340261:16.542045 
2.5268272930202 1495:18.848305 19451:18.764777 22228:19.081204 32121:26.58613 36342:21.869344 51265:18.034126 64962:18.712307 81549:20.068209 82360:26.671388 83530:10.276785 86804:18.576797 96358:33.811824 133286:21.02322 134048:10.028566 157640:7.1214956 191157:10.385792 216931:27.820994 218801:18.576797 232114:22.171725 236123:19.698466 247604:23.354918 254184:15.878515 276580:25.31073 285320:19.022731 299456:23.588004 302387:28.888364 307175:9.6868753 325996:25.102292 331448:29.734487 333452:27.575754 333545:11.861318 
40 29968:30.978109 35257:12.307179 48269:19.055627 50110:17.648009 56545:28.798757 77281:15.279985 89378:8.847699 105771:38.165553 111088:27.663322 112888:15.334558 122416:17.102477 126543:24.886684 160629:18.211639 172249:10.62495 193326:22.862959 200947:27.961626 209425:20.502081 224266:22.249572 235173:24.632498 240411:30.392979 245369:19.351643 261584:17.630683 276173:10.66789 285320:13.066118 310393:16.703284 312394:6.3300226 318153:18.628262 318227:22.313708 339641:19.29726 340468:25.967517 
11.04323274477514 48269:62.88357 69588:64.440296 83530:34.941068 147156:45.331455 164366:84.514976 191203:74.706683 191386:64.313175 240797:80.513375 298140:76.458724 317131:100.29683 
0.6817590028752943 1598:19.510631 5157:41.293876 19297:20.646938 19934:16.101711 20655:19.510631 44290:7.7913875 55642:9.4827703 61521:8.4515633 63608:19.510631 67118:38.566993 69588:10.563983 71739:12.581396 71901:4.8362456 87008:6.240158 88003:8.5512272 108834:12.088978 113851:10.143856 134045:5.4579187 134048:5.5896923 135122:17.456922 135138:10.122356 157640:11.908075 171455:13.658938 176015:14.201322 177502:11.575808 193831:15.908624 194903:14.965404 202208:9.1267505 226569:9.4918325 232807:8.2212352 240854:13.325777 246613:15.370093 246967:18.008515 255516:15.908624 262507:11.669129 265601:14.559115 272389:7.8075707 279116:10.305793 282239:18.845934 286857:18.374325 290077:7.2954811 292279:14.519611 294853:25.912408 299335:18.845934 312392:10.308782 314934:16.573321 320853:14.048001 320858:12.443748 325996:6.9957208 329338:15.506784 333545:13.222453 
6.582204923943962 29968:34.075919 44757:42.750316 82567:48.709102 104505:56.894595 134048:22.731416 152579:32.353992 157640:32.284113 187606:51.513986 198602:34.418269 202208:37.115452 215462:53.330083 226521:23.892274 296943:65.910547 312388:29.439957 
40 14575:19.707066 16077:18.423588 19630:18.642869 25673:20.232556 44290:16.974094 48269:22.458418 49086:22.152554 62540:34.464976 96446:16.089821 108829:25.290013 109471:35.309222 128018:24.280623 130387:21.243721 134045:11.890466 172493:26.617746 177805:16.951712 191151:29.707022 212990:6.7207709 242075:19.392543 266511:30.938595 275720:53.755201 286278:17.559889 298975:28.161079 299703:25.135015 303925:23.391525 315423:19.462272 333545:14.403029 
22.08000893543765 67322:60.144893 96040:56.712255 151234:67.821209 152101:100.72956 253481:82.745976 283662:90.447611 313251:70.800623 318937:58.734328 
1.105854818154424 7386:170.02122 48269:89.833672 157351:92.118615 157640:34.590121 199191:130.86636 285320:30.798707 312394:29.841535 
5.278390683469593 9332:27.704592 19451:27.739236 29775:26.860435 44757:27.880641 48269:27.340683 49086:53.936654 55642:25.149956 67194:28.236145 87948:39.690854 138636:40.271425 157640:10.527428 167671:14.75055 192681:26.638842 205043:46.298792 285320:9.3735196 306704:23.846752 310905:22.687497 312394:9.0822064 325010:46.669303 333545:17.534123 340155:34.780489 
2.850679096270081 42755:23.875484 49086:103.37859 56683:43.756297 119615:33.687526 134559:32.840397 147156:25.184141 156654:34.487517 202208:30.929543 212751:69.97018 212990:10.454532 237799:56.648539 254258:39.686633 310393:30.622688 310524:24.047044 326160:45.288784 333545:22.404713 
5.409625182737719 13098:38.763262 29968:24.339942 47344:41.345759 48269:29.944557 62540:45.953302 67194:30.925302 82567:34.792216 95578:39.3519 152639:54.742953 156024:24.923297 157640:11.53004 175723:46.771636 187257:36.982469 202208:26.511037 208663:50.072337 232114:35.897079 257993:36.408916 261612:42.652601 288247:27.539943 303099:30.296116 333545:19.204039 
12.75405572000009 29968:60.133975 48269:36.990336 49086:36.48656 96217:29.215301 97690:28.324502 109459:60.541454 112888:29.767082 120890:13.858583 123975:23.150544 133626:54.27845 139816:33.89811 204796:25.332946 262147:54.48487 265435:43.159629 290857:44.232109 293564:23.897356 
7.346847964478575 56683:49.225834 65908:50.387705 101564:62.685519 108123:70.052112 126127:27.542356 138986:23.618534 195180:45.356839 263052:46.089228 267483:51.567668 280414:68.657465 286278:30.729805 299703:43.986277 323331:54.521446 335329:78.716452 337806:57.254032 340468:53.558004 
6.813963071301594 21834:57.248661 48269:41.92238 67194:43.295422 68422:56.449986 135138:41.164249 147156:30.22097 155004:37.536645 159593:43.711743 220608:64.334622 240797:53.675584 285320:43.11819 286718:44.088121 312394:13.92605 
1.252037792472948 33434:67.615566 56683:98.451668 131023:90.956404 209895:70.535752 285320:26.948869 306579:93.089223 326484:43.733665 340468:107.11601 
4.059463511298013 67194:72.159037 125062:58.232333 138217:87.814272 175723:109.13382 202208:61.859087 215462:88.883472 247961:109.85091 284392:85.112871 299071:67.42375 
6.042041326969771 22228:30.893378 24400:37.722874 48269:29.944557 56683:37.505397 67118:67.21676 67194:30.925302 98552:44.279978 134622:39.812028 172493:35.490327 187257:36.982469 192158:21.987383 209181:25.11794 242075:25.856724 247771:35.29928 252016:23.895346 261584:27.705359 299509:34.534753 303099:30.296116 312394:9.9471784 
5.170320567444911 46248:112.63892 48269:78.604463 82965:101.60905 159054:86.430746 239688:42.257485 242075:67.873899 298805:62.892897 310129:79.260044 
10.7882190229093 7388:72.212326 22946:26.304023 67118:33.60838 73191:43.943515 80064:45.893011 110072:41.857433 120890:16.828279 131345:40.197608 135138:44.104553 147745:39.474717 198451:56.856452 299930:44.293154 315032:26.165804 321505:58.751318 
28.71054137781429 5069:9.7385429 9142:11.006119 9332:9.1029372 29732:12.143268 32612:11.290406 33434:7.7274933 34739:15.432676 37822:11.943608 45675:16.422886 49086:44.305109 52862:14.85344 56683:11.251619 67118:20.165028 67194:9.2775905 72112:30.865351 82567:10.437665 83530:4.9915812 83597:9.3397833 86804:9.0230156 103902:7.1360443 110590:12.143268 121543:17.992332 123707:6.234745 124056:7.9763119 126255:12.873019 135138:8.8209106 151806:5.4074534 157640:6.9180243 159985:10.745366 164132:16.422886 167567:8.8024175 167671:4.8466094 181620:11.027764 187257:11.094741 196221:9.9324646 198524:16.011911 202208:7.9533112 212758:7.8272146 226521:5.1197729 230502:8.1486046 247814:9.2118615 256723:11.083358 264611:3.2382283 268564:8.0722073 275720:10.75104 277617:5.3113545 281090:11.579994 285320:3.0798707 286987:8.1000285 289217:15.432676 290847:14.442465 294069:9.4876986 296943:14.123689 299930:8.8586308 303099:9.0888347 307175:4.7050537 315751:9.6652667 322189:15.40138 326484:4.9981332 340468:12.241829 
40 251:13.239459 873:6.4221395 21850:14.0933 38399:7.4716616 47836:6.8129478 48269:48.371977 49086:9.5426388 51263:4.5022884 72112:49.859413 81953:17.243597 90327:30.035135 101389:7.1078454 106429:5.1092854 122110:8.718576 134048:5.2457113 148586:22.434854 168320:10.526246 187703:23.705487 195907:5.749849 201605:8.8891881 202208:8.5651043 204796:6.6255396 225000:10.076349 226148:7.2855467 226470:7.1688627 226570:8.7754203 234129:13.211229 236407:7.3824221 242062:5.7143461 243489:13.519954 247814:9.9204663 253033:8.5193775 263776:6.6851055 264611:6.9746455 271057:27.326339 271979:19.376357 275507:32.765299 276173:5.4160059 276175:3.9936616 284943:10.729587 285320:6.6335677 293546:22.285459 294069:10.217522 303542:3.9625777 310540:19.996332 311687:9.2437856 316322:11.899723 326160:12.541509 
3.218732467863325 3832:45.571537 40492:72.019152 55185:61.749519 57505:61.749519 159593:43.711743 168127:79.343234 175723:65.480291 191608:31.207409 216477:42.613979 262595:42.587043 273830:62.243572 285320:28.74546 311687:40.056404 331809:40.542681 
20.45407626917861 29968:30.066988 49086:36.48656 78185:40.633276 132956:59.468975 171871:45.059755 172493:43.840993 188223:37.390045 224799:34.706296 237799:59.980806 262752:41.067672 276173:10.354129 285320:12.681821 306020:29.551022 307175:19.373751 312394:12.287691 328061:39.097631 340468:50.407533 
5.472979360346298 2136:47.576022 77378:39.926644 89459:28.728706 90327:81.345158 148586:60.761062 150828:63.630799 157099:57.47949 199273:55.653586 214538:37.35337 246563:21.981613 247247:79.584249 
11.45761246343637 14599:39.997562 16826:26.956134 21524:33.325216 36665:19.589373 55470:41.063028 56683:78.761335 90327:48.807095 115009:48.250967 117260:32.438047 126543:41.063028 148586:36.456637 152606:28.384634 172493:37.264844 180522:43.722424 215721:21.675871 224845:56.04169 294347:43.121702 315978:18.846097 326529:35.131439 
26.25050963307172 3832:52.582543 26373:62.528648 29968:39.318369 48269:96.743954 51579:31.046964 81762:34.936148 96446:34.654999 172493:57.330529 196251:25.879933 243337:47.311547 320725:77.151407 340468:65.917543 
13.22682048587119 873:13.914636 25673:18.883719 28153:13.260456 45819:39.671617 48269:104.80595 57713:31.388595 58144:30.535484 72112:72.019152 106429:11.070118 123772:29.856821 152101:15.109434 154539:26.909479 159054:23.048199 209834:30.037045 230502:19.013411 232114:25.127955 242075:18.099706 303099:21.207281 312388:14.719978 312394:6.9630249 313251:42.480374 315978:12.564065 316771:26.802518 328605:22.754371 
2.431503139625963 38416:51.294016 55642:48.204082 62252:74.425589 132138:72.190056 135122:88.739351 136169:46.976125 140323:59.388102 276173:14.668349 285320:17.965913 286718:55.110151 326160:67.933176 333545:33.607069 
40 3832:52.582543 26373:62.528648 29968:39.318369 48269:96.743954 51579:31.046964 81762:34.936148 96446:34.654999 172493:57.330529 196251:25.879933 243337:47.311547 320725:77.151407 340468:65.917543 
26.00938483855719 24992:10.61982 26373:24.632498 48269:38.111255 49086:18.796107 50110:17.648009 51579:12.230622 56683:23.867071 58144:27.759531 72112:32.735978 77378:14.51878 114779:15.577246 127174:19.68654 128018:20.601741 134045:10.08888 134622:25.334927 150534:18.08459 157640:7.3372985 171871:23.212601 178663:19.986957 187703:23.346313 202208:16.87066 205922:19.666179 243096:13.385202 264611:6.868969 265350:29.40685 271183:24.302792 275720:45.610473 301661:23.27872 333545:12.220752 340372:15.608996 340468:25.967517 
12.36849013865425 32234:18.90401 45245:29.289843 48269:14.624086 49086:57.699676 56683:18.316589 59699:10.147108 61272:21.712874 73294:14.378637 74505:42.459983 115307:13.327509 119615:14.101755 125062:12.188163 131345:13.087593 134559:13.747143 142041:15.113506 143403:11.877811 160953:20.056606 172493:17.332486 177805:11.038324 201041:17.051028 212990:4.3763159 218801:14.68863 220724:13.009995 229961:12.227199 231731:19.18797 239688:7.8618576 258261:26.73493 261584:13.530524 272870:23.51099 274419:14.598762 284949:14.129035 285320:10.027486 286824:18.275428 288988:14.39781 312394:4.8579243 326160:18.958096 329338:21.997996 333545:9.3787169 
24.20607459200872 32198:17.49271 38492:23.630472 49086:70.4854 51579:9.1729665 86132:11.673741 102242:21.704795 111363:20.240347 113560:7.7805652 131122:15.202887 131700:14.95108 132818:27.04883 135138:14.033267 142418:10.933126 155052:44.370086 160441:18.871508 178950:28.624164 181589:12.758242 194497:7.1019433 197602:11.124523 202655:11.032734 205669:17.880101 209175:7.5221391 212990:4.2768542 255504:15.035788 257512:22.626307 261584:13.223012 277617:8.4498822 285320:19.599177 291390:17.82055 293564:9.2330694 293940:11.561232 310129:14.410917 312394:4.747517 315978:8.5664078 326029:13.294082 
1.623661079796131 10737:16.27234 12015:28.446742 24348:15.055683 48269:11.864825 49086:11.703236 51265:11.569062 59699:8.232559 61521:9.727271 67194:24.506843 69753:16.202451 72774:9.5439026 83530:6.5926544 84605:24.549387 108790:7.7762095 114779:9.6990401 115724:12.16661 122139:19.61775 122563:11.638007 125798:23.763457 149428:18.92393 151082:9.3309736 157640:4.5685066 167621:18.019075 167671:12.802364 172493:14.062205 179648:11.167564 197225:16.666853 197602:9.2354527 216045:8.0471212 230063:11.210885 234101:23.167675 247714:15.09342 253100:19.418957 261584:10.977595 267561:9.3318727 275720:14.199487 276175:4.8978869 280061:11.177106 281090:15.294332 285320:8.1355076 293564:7.6651897 299703:26.557752 312394:3.9413348 332892:16.135059 341015:12.560559 
34.63607078680311 4613:6.2679422 5325:8.6909131 9332:6.502098 12089:9.1670555 14575:5.6305903 21850:9.3475971 22176:5.7262955 29968:20.862808 30138:18.506677 30257:7.6665591 31967:5.6550115 45147:8.4460655 48269:6.4166909 49086:12.658602 55967:11.43708 58012:10.6096 62466:10.022493 64783:5.0237463 67118:9.6023942 72112:11.02334 78185:7.0486296 82787:4.6481147 87803:6.0802916 92985:9.9023067 100072:5.6603215 100111:8.2156506 103902:10.194349 104022:6.7956512 125797:6.2409415 126739:2.9458951 128018:6.937321 145038:10.560515 147156:4.6256586 149233:11.730633 162470:5.8628225 163066:3.8480935 168209:8.8003474 168320:6.9816936 172493:7.6050702 173869:9.4885668 190468:9.794796 191157:10.809701 197287:11.730633 202208:5.6809365 202647:8.2375957 203552:7.6857523 207922:8.9229436 208566:8.142359 209175:3.377287 209834:9.1950137 215721:8.8472941 217205:6.7902664 223689:5.4237893 226570:5.8204318 226574:5.7560695 230540:5.2981437 230632:5.1141774 242075:5.5407265 243242:3.3048172 243489:8.9673162 246563:2.6916261 258140:7.1314594 261584:5.9368626 273033:9.6975407 273537:6.4411894 275720:7.6793144 276173:1.7961244 279116:6.4148305 282709:6.4526979 285320:6.599723 285418:10.502089 288247:5.9014163 293564:4.1454597 299071:6.191977 299456:8.1835932 299509:7.4003042 299664:5.2687068 301523:8.4736458 307175:3.3607526 313251:6.502098 323309:5.3420048 330987:8.7083564 332302:5.1442303 333123:4.3934645 333545:4.1151513 
15.51082246026409 21148:20.059366 32198:15.393585 38077:20.219451 44444:20.393474 48269:25.153428 56683:47.256801 59591:11.188596 60128:14.748553 61521:5.1554536 63330:10.349305 84208:17.000576 86975:12.508546 100289:15.548702 124717:12.728302 126543:16.425211 134045:6.6586608 138986:7.557931 151806:7.5704348 156534:16.967517 157640:4.842617 160099:18.19625 175677:14.871154 179648:94.700946 192158:9.2347007 197602:9.7895798 209175:6.6194824 220564:16.211992 227889:16.234591 242062:7.4286499 252016:10.036045 261584:11.636251 269918:8.9115511 285320:8.623638 300983:11.868114 310393:11.024168 326484:6.9973864 328691:17.762121 333545:8.0656965 340261:18.19625 
1.645625483660601 30412:44.833352 49086:24.810861 56683:31.504534 57807:24.415635 67194:25.977253 71338:20.892572 87008:15.225986 108790:16.485564 117846:20.228809 126178:29.651395 129971:28.182225 171816:32.379291 177805:18.985917 185360:26.670825 194373:41.168189 196251:13.457565 208043:24.243374 214698:29.858934 259375:20.16119 281090:32.423984 298398:47.605941 299703:28.151217 314886:47.605941 315423:21.797745 333545:16.131393 
5.84943998840384 29968:73.019827 126178:105.89784 126389:97.789133 231757:102.67801 244463:160.11911 288247:82.619828 330987:121.91699 
21.36815431469649 266:56.280905 6204:39.21523 49086:95.426388 71901:22.693152 123513:79.169594 128085:45.150759 167174:50.660147 171871:58.924295 230540:39.939852 279347:80.550791 292749:62.890706 
4.375459590781887 5881:39.947311 18752:41.589831 31270:30.132772 43717:21.308012 49086:62.027152 96040:25.520515 121192:37.597293 157056:62.973162 180563:45.803226 187703:38.521416 188115:30.91407 189637:42.585474 206061:25.622041 259718:37.788399 264611:11.333799 268043:37.492871 272389:23.813091 306968:33.947487 
4.906811859037032 3832:25.317521 4174:21.303515 17890:29.040897 29781:36.616971 32257:21.586817 39810:32.548036 40119:24.825882 50807:27.849846 55642:21.424037 111173:30.911619 116279:40.01064 128757:42.577852 135138:22.869027 186537:31.01898 240113:40.685905 260163:36.377939 267136:28.915335 272047:30.236354 276136:26.302114 280066:64.315625 287943:42.577852 294730:21.802031 299703:26.065942 303099:23.563646 317131:37.146974 340291:29.340013 
1.200585063931037 6204:39.21523 49086:47.713194 124056:42.949372 134048:26.228556 151873:84.501495 168956:63.27065 224377:66.197294 254184:41.528424 259335:88.430923 263346:83.099022 284907:38.967408 306704:42.190407 333545:31.02191 
25.15275646046955 5325:11.829298 28923:17.492545 29968:7.0991499 32198:10.68999 35257:5.6407902 36363:5.1219895 44757:8.9063159 48269:17.467658 49086:34.459529 55642:8.0340137 64219:7.7397999 64241:10.426439 71901:4.0973748 87008:5.2868005 89378:4.0551954 92522:10.001396 101332:10.392562 102242:13.264042 102345:8.5161151 104033:9.4509335 105397:15.567136 117846:7.0238921 119891:7.5555791 143810:7.5202256 152101:6.2955973 152364:9.0934169 157640:3.3629285 158515:8.4588113 160441:5.7662941 168494:11.042002 170513:8.0587332 181606:11.227462 191157:4.9044016 202208:7.7323858 207181:14.604432 215794:10.126844 220547:13.137692 222674:7.3242275 235393:7.0410161 241959:8.0696879 251790:15.257214 254184:14.996375 267209:10.496777 268262:7.0728414 274192:12.236726 274419:8.7187051 277646:8.6815998 285320:11.977275 286987:7.8750277 296867:8.4484542 298805:6.9880996 300983:8.2417461 304265:4.4572872 306704:7.6177123 307175:9.1487155 307703:10.280105 312394:2.9012604 313251:8.8500779 327032:13.403046 331575:12.815745 333545:11.202356 338321:6.0490318 
10.56369134231039 29968:24.339942 38561:23.233632 49086:29.536739 86784:27.672891 96446:21.453095 110890:37.216709 135122:50.708201 182087:18.502368 197869:28.527088 199191:43.62212 212990:8.9610278 220560:37.020718 223272:28.306444 230063:28.29414 267561:23.551869 283135:25.307734 298239:32.388661 307175:15.683512 312394:9.9471784 328061:31.650464 333545:19.204039 
17.36433791468305 6204:11.586318 49086:28.19416 56683:35.800607 67671:24.551984 72112:73.655951 72774:11.496065 77500:28.624164 82787:10.352619 83670:15.521457 84208:19.318836 119198:10.783906 119591:15.809722 120890:10.708905 123707:19.837825 123975:8.9445282 135421:23.174402 136502:20.075982 156156:14.120037 160629:13.658729 167671:7.710515 184250:18.52723 197593:14.376218 202208:12.652995 209181:11.988108 212990:4.2768542 217118:9.4872515 224845:25.473495 230502:12.963689 242062:8.4416477 253719:16.304767 254184:12.269762 264611:5.1517268 271227:9.3436426 299509:16.482496 310156:15.221542 312765:12.531283 333545:18.331128 
16.60763726286959 2886:12.453573 10730:12.049936 19451:9.8154219 25480:8.3172609 29968:7.8636737 33639:9.2416651 35257:6.2482599 48269:19.348791 49086:19.085278 61521:7.9314671 65908:12.403127 78989:8.5542221 81549:10.497217 83005:15.687288 96040:7.852466 96446:6.9309998 110572:8.8524397 118635:13.626096 120890:7.2491049 133032:8.0668832 133286:10.996761 138979:7.9173823 145330:8.4255633 152101:6.9735847 157067:8.0202007 163377:11.493336 166710:7.3989648 172493:11.466106 181034:14.929632 191157:5.4325679 199191:14.0933 204371:12.65413 208566:12.276172 212990:8.6853039 215794:11.217427 220831:5.3240511 222674:16.225981 236123:10.303813 243242:4.9826474 246563:4.058144 254184:8.3056848 279644:15.553424 281213:11.113837 284849:9.7789349 285320:6.6335677 289217:16.619804 296943:15.210126 297062:7.9907873 299966:13.002304 306185:9.0449984 307175:10.133962 307703:11.387193 312394:3.2137038 315032:5.6357116 317336:8.2919074 340261:13.997115 
2.933859877679253 13655:67.430699 19610:50.832156 63360:69.985575 79908:77.151407 85508:44.06724 115724:49.602331 122468:96.881787 190563:64.201054 212990:14.475506 285039:51.519065 289420:72.762601 325160:79.98006 333440:71.529196 
0.2553782295909204 3832:85.446632 5467:117.70723 48269:78.604463 49086:77.53394 153511:85.565492 238078:48.666074 309006:148.76856 333545:50.410603 
40 2886:12.453573 10730:12.049936 19451:9.8154219 25480:8.3172609 29968:7.8636737 33639:9.2416651 35257:6.2482599 48269:19.348791 49086:19.085278 61521:7.9314671 65908:12.403127 78989:8.5542221 81549:10.497217 83005:15.687288 96040:7.852466 96446:6.9309998 110572:8.8524397 118635:13.626096 120890:7.2491049 133032:8.0668832 133286:10.996761 138979:7.9173823 145330:8.4255633 152101:6.9735847 157067:8.0202007 163377:11.493336 166710:7.3989648 172493:11.466106 181034:14.929632 191157:5.4325679 199191:14.0933 204371:12.65413 208566:12.276172 212990:8.6853039 215794:11.217427 220831:5.3240511 222674:16.225981 236123:10.303813 243242:4.9826474 246563:4.058144 254184:8.3056848 279644:15.553424 281213:11.113837 284849:9.7789349 285320:6.6335677 289217:16.619804 296943:15.210126 297062:7.9907873 299966:13.002304 306185:9.0449984 307175:10.133962 307703:11.387193 312394:3.2137038 315032:5.6357116 317336:8.2919074 340261:13.997115 
8.334774959695924 24630:29.475543 44757:25.65019 49086:24.810861 56683:63.009068 103225:27.671514 122416:22.57527 135985:19.398518 155425:27.393717 206937:33.32781 212758:21.916201 212990:7.5272634 230502:45.632186 243242:25.909767 250940:40.438903 274730:37.836552 275879:26.086351 277992:47.605941 278814:27.23094 285320:8.623638 292360:38.600773 303099:25.448737 326760:42.594889 
14.70224630430389 56683:71.601213 87008:34.604513 126739:26.245247 144888:88.740173 177762:59.308133 199273:60.713002 222437:56.761333 226271:95.592643 304265:29.174971 310909:53.911121 326484:31.806302 
13.62107411188927 29968:31.946174 61521:16.110793 101746:34.829099 120890:14.724744 121192:140.98985 123975:24.597453 157640:15.133178 180730:51.816045 183491:24.194222 209175:20.685883 212990:11.761349 274419:39.234173 299509:45.326863 334615:78.716452 
0.8199888744100708 19451:17.72229 20507:21.19941 24630:20.469127 35257:11.28158 42755:11.937742 48269:17.467658 49086:51.689293 64175:12.067426 78950:19.819574 122416:15.677271 128085:16.304441 129519:15.316012 136428:26.806093 145091:15.418332 148276:16.73653 192158:12.825973 209181:14.652132 238078:10.814683 239688:9.3905522 248582:25.934822 254184:14.996375 256359:33.059681 285320:11.977275 294001:21.953568 299071:16.855937 299703:19.549456 310393:30.622688 312394:11.605041 326160:22.644392 333545:11.202356 336503:34.98509 
10.96477831028233 3185:17.153412 12423:5.258478 19112:16.849543 29968:8.5189798 38416:10.258803 44290:7.921244 48269:20.96119 49086:31.013576 51263:4.8774791 52258:11.729674 53421:12.055567 58027:12.317709 61521:4.2962113 62540:16.083656 66070:33.699086 68504:12.032257 99251:13.729872 101389:7.7001658 112823:18.308657 119891:9.0666949 120890:7.8531969 127980:9.0015775 134081:9.7392181 135138:10.291062 147387:18.680563 156809:8.5321551 157640:4.0355142 159593:10.927936 169173:14.609985 191608:7.8018522 196251:11.214638 207986:12.383077 231397:11.126231 234326:14.761605 236391:15.91685 237911:18.308657 277617:6.1965803 289442:5.5308404 298001:7.8344786 303099:10.603641 304239:6.9148919 307175:10.978459 310695:9.3177636 312394:3.4815124 325010:8.9449497 326484:5.8311554 327252:35.654003 329338:15.76523 337950:10.444493 340185:9.2626745 340853:15.163541 
11.94978476962228 44757:42.750316 48269:41.92238 55185:61.749519 88793:70.101272 90068:59.713641 122416:37.62545 153272:66.3705 209175:22.064941 212959:35.191659 231397:44.504923 274962:40.224011 276175:17.305867 304209:42.560215 329700:73.234629 333545:26.885655 
38.45900395343164 29626:50.548628 29968:25.55694 49086:31.013576 62306:33.487392 71901:14.750549 72112:54.014364 108860:36.506638 123513:51.460236 160953:43.121702 181582:31.140809 189581:33.75544 271979:62.973162 272227:33.298691 276173:8.8010095 285320:21.559095 310393:27.560419 320959:23.691564 327252:35.654003 340468:42.846403 
4.905566305508763 19610:33.040902 49086:62.027152 88261:50.983685 94767:85.872991 135138:61.746374 184300:24.684385 195907:18.687009 204796:21.533004 209097:34.421027 240142:46.682679 242075:27.14956 276173:8.8010095 286718:33.066091 307848:32.125108 309246:24.632693 324051:37.413223 340136:36.557143 
19.03374125208895 67118:36.19364 67194:49.956257 89378:22.459544 94966:44.789975 112040:79.169594 120890:18.122762 125062:40.314692 131345:43.289732 167671:26.097128 208730:29.738803 266295:62.182868 309716:35.126948 324950:56.725204 
0.1880938420064666 56683:43.756297 62397:24.955811 79495:45.625587 105379:55.720461 106429:18.450197 124595:37.37869 149493:42.718653 157640:13.451714 181664:30.576236 191157:19.617606 227558:34.935317 275879:36.231043 276173:9.7788995 307175:18.297431 307886:31.621609 331610:41.844652 333545:22.404713 340261:50.545138 
11.30236780214595 10730:30.12484 21850:35.23325 29634:18.413573 34880:42.250748 48269:48.371977 49086:23.856597 50110:22.399396 55185:35.624722 67194:24.978128 85803:22.566156 123718:22.126988 138217:30.397248 143810:41.65048 162389:26.195412 167746:15.551632 202208:21.412761 210499:22.994489 214301:34.065241 226570:21.938551 238895:26.010576 315896:40.443041 333545:31.02191 334048:27.128341 
15.01197227872155 28153:30.601053 31212:36.21761 31270:23.179055 34739:41.549511 46694:61.305073 62540:37.116128 72112:41.549511 80558:35.764598 81648:36.3813 81762:17.468074 94252:41.549511 126178:28.510957 126283:22.645269 157640:9.312725 230502:21.938551 230540:19.969926 237418:25.425754 276174:12.941852 298975:30.327316 303099:97.879759 316771:30.925982 
2.736704933732299 1392:15.359308 4704:10.407548 9332:7.7708001 17447:11.058868 19791:17.320905 30901:12.823403 33146:11.339994 44757:7.8201798 46602:8.3209649 48269:15.337456 48441:8.5007498 56683:9.6050408 62252:10.89155 67118:11.476032 70515:8.6806936 80064:7.8353922 81953:13.668705 82190:8.1087948 82567:8.9102016 88793:12.823403 92490:5.2522589 94822:7.4309057 96446:5.4940852 107253:9.5622465 112902:11.433849 119198:5.7864861 120428:10.772478 120918:8.0106907 122416:6.8827043 128085:7.1580472 137184:8.8979451 138503:6.3514164 147156:5.5282262 148586:8.8918627 152581:10.664006 157164:6.6265688 157640:2.9528152 159058:10.690233 182087:4.7384114 184300:6.0205818 207618:6.6748535 220846:8.0618244 221737:13.174235 227820:8.1248624 229339:10.564398 240714:5.2267566 242075:6.6218438 251997:8.4703147 254184:6.5837745 267893:12.231321 272711:10.690233 276173:2.1465877 277617:4.5340831 283135:6.4812489 285320:5.2583159 291390:9.5622465 298975:9.6159782 299509:35.377064 303542:3.1410677 303930:9.660736 307175:4.0165093 307703:9.0264335 311366:8.9040579 313305:10.989163 318859:8.3096205 319172:8.2872435 320959:5.7784302 322189:6.5737598 324845:10.346047 325534:8.7651958 326160:9.9414403 333545:14.754323 333742:8.4406208 
19.31196185731756 4560:22.240123 37086:33.247966 49086:25.844647 56683:32.817223 80705:40.434419 97690:20.063189 101332:31.177686 108373:29.029213 111553:21.713601 150935:25.018047 152579:40.442489 160473:23.241761 162241:40.434419 196317:30.70369 209809:30.257973 254184:22.494563 276173:7.3341746 310393:22.967016 310908:23.653861 312388:36.799946 312394:8.7037811 333545:16.803534 
9.981613499921178 266:20.904336 26209:26.464079 36665:11.193927 48269:17.966734 56683:22.503238 56810:30.865351 62540:27.571981 67118:13.443352 67194:18.555181 108790:11.775403 117756:14.702046 124056:15.952624 134045:9.5123726 134713:18.561594 152963:23.846106 167671:9.6932188 172493:21.294196 191608:13.374604 194765:27.026109 215721:12.386212 216448:13.36105 226521:10.239546 238078:11.123674 254184:15.424843 258716:14.295072 260048:14.23513 263776:12.415196 285320:6.1597414 298001:13.430535 307886:16.262542 310524:12.367051 313649:32.023823 326160:23.291374 330523:16.358908 333545:11.522424 
10.03301176861291 19382:38.041662 44757:49.327288 56683:60.585642 101332:57.558804 126178:57.021914 152579:37.331529 190400:75.554182 202208:42.825522 215794:56.087134 226580:46.47788 312406:40.849981 326160:62.707547 333545:31.02191 
10.19208698592095 873:14.394451 22176:19.35093 34949:25.740461 49086:42.777346 51725:21.252763 56683:27.159081 69090:33.869116 94778:17.635186 110382:13.426271 113560:11.804995 128085:20.239995 147006:37.879981 157640:8.3493396 172493:25.699892 182087:13.398267 191608:16.141763 200676:25.007924 219753:12.089682 221811:17.664484 226698:22.198805 229145:16.712427 250258:22.659258 265623:27.837392 276174:11.60304 315032:12.631767 317192:16.541139 326484:12.064459 333545:13.906373 
24.11999525523206 3832:14.544108 18752:17.6978 19791:15.109725 24992:7.4564692 35257:8.6412105 36665:8.3359033 39655:17.130505 48269:13.379483 49086:39.591799 50110:12.391155 67118:10.011007 75606:17.668453 80221:9.5498286 84959:17.819414 103162:12.131895 109343:13.981244 117668:16.360335 128018:14.465052 147156:9.6449903 148726:18.05055 154687:19.86497 177848:11.379286 183491:8.236331 191608:9.9598113 198602:10.984554 202208:11.845357 204690:16.376154 214301:18.844602 216359:13.870822 220724:11.902761 226521:7.6251937 238078:16.567174 239688:7.1927634 254258:15.199136 276175:5.523149 285320:4.5870415 286987:12.063872 294614:13.77051 298805:10.705174 309716:9.7159644 310393:11.727838 312394:8.8889679 333545:8.5805282 
21.62471912860026 120:12.353355 17363:9.5761107 29968:18.254957 33639:10.726933 44290:8.4870471 44757:11.450978 48269:11.229209 49086:44.305109 56683:14.064524 67118:8.402095 72839:16.193343 87509:14.780615 92085:13.450067 93823:16.891318 113560:12.226602 118327:14.515579 121024:18.5668 123156:22.490415 128085:10.481426 135138:11.026138 142418:8.5903131 143810:9.6688615 144362:10.498659 149133:15.653555 156809:9.1415948 171816:14.45504 171871:27.357709 172493:13.308873 177805:8.4758558 180369:14.048651 191608:8.3591273 195010:19.290844 203087:12.081583 217161:14.358492 252016:8.9607546 258716:8.9344201 268043:6.6951556 276173:3.1432177 276175:4.6355001 285320:3.8498384 286718:11.809318 299703:12.567508 300721:32.833696 303542:4.5994206 307175:5.8813171 309198:8.6014995 312394:3.7301919 320959:8.4612728 333036:13.472815 
40 873:14.394451 22176:19.35093 34949:25.740461 49086:42.777346 51725:21.252763 56683:27.159081 69090:33.869116 94778:17.635186 110382:13.426271 113560:11.804995 128085:20.239995 147006:37.879981 157640:8.3493396 172493:25.699892 182087:13.398267 191608:16.141763 200676:25.007924 219753:12.089682 221811:17.664484 226698:22.198805 229145:16.712427 250258:22.659258 265623:27.837392 276174:11.60304 315032:12.631767 317192:16.541139 326484:12.064459 333545:13.906373 
6.706777414363517 38416:24.621128 47226:73.818692 48269:25.153428 57717:34.651227 59699:17.453025 67194:25.977253 97429:30.58349 100696:24.744414 103162:22.807963 120890:18.847673 134048:13.638849 157640:19.370468 174175:28.105151 176695:17.841832 202208:22.269271 232114:30.153546 276903:23.946527 285320:8.623638 303930:31.687214 312394:8.3556299 322189:21.561932 333545:16.131393 
0.322349758081235 54436:77.916847 96156:49.815717 166591:156.93135 172493:106.47098 202208:79.533112 261584:83.116076 333545:57.612118 
16.17866595329188 43961:46.771636 48269:29.944557 58836:33.440373 67118:22.405587 83530:16.638604 93720:25.957213 116489:50.072337 123975:18.740916 124056:26.587706 124988:27.54519 129954:38.339703 134045:15.853954 134048:16.236725 145747:31.000633 159054:32.925999 172874:53.373038 186575:26.549217 207618:26.063714 233536:54.742953 234101:29.235399 265644:31.166185 
7.63279764524613 24997:114.13517 196317:105.2698 209181:75.35382 247820:116.97019 250192:137.8599 315978:53.845992 337825:104.09092 
22.88843160274214 30347:27.153114 48269:35.933469 49086:17.722043 67118:13.443352 77926:21.948507 79021:24.433089 101389:13.200284 114779:14.687118 123718:16.437191 124056:15.952624 126739:8.2485063 135080:29.405849 152568:10.892313 177805:40.684108 219753:20.03433 230250:64.047646 243604:15.295046 252016:14.337207 271979:35.984664 285320:6.1597414 307175:9.4101074 310156:19.135653 310393:31.497621 313251:54.617623 320959:13.538036 321334:26.787876 338321:12.443723 
0.2122491928473736 37955:28.255686 38399:21.115565 45863:26.129743 48269:54.681366 49086:26.968327 56683:34.244058 82567:31.766806 120918:28.559854 160441:18.051008 172963:41.734348 177805:20.636866 218801:27.461352 230930:51.745588 236407:20.863367 238078:16.92733 241638:31.63701 263776:18.892689 308049:70.886792 329338:41.126687 333545:35.068246 
14.07348861384782 251:19.558292 1486:16.772038 10805:22.626307 22326:26.127318 24488:18.347372 29451:23.630472 29842:22.794734 30899:14.664988 32630:14.588102 49229:16.304767 64900:76.420486 74390:21.599068 84686:21.401315 92115:15.951553 95684:21.050972 96040:11.600234 108586:26.111392 109344:18.842198 124216:37.16269 124230:27.629269 130300:25.737202 140085:24.551984 184786:24.966351 186513:18.52723 186532:28.624164 187703:17.509735 199720:18.63678 206061:11.646382 210084:15.291282 246333:21.401315 273927:18.781589 277860:14.827033 283091:50.341776 289429:18.936256 314859:21.599068 
40 120:8.2355697 16874:9.8537431 18752:9.9023407 30413:12.035388 32198:18.325696 35257:4.834963 40582:4.5313617 47344:10.33644 48269:14.972279 49086:14.76837 49115:6.3359928 52670:8.9895324 54698:13.077612 56683:18.752699 57493:13.077612 60064:5.8930852 67194:7.7313254 79021:10.180454 89920:6.490244 94822:14.507959 102345:7.2995272 108824:5.4448864 117756:6.1258526 121748:10.90553 130388:8.5999932 132689:8.5353361 137776:9.7475156 140420:25.721126 147515:7.2939686 155052:11.620737 160441:4.9425378 172249:4.1740876 174175:8.3646284 177805:16.951712 181877:12.138973 192158:5.4968456 196230:8.7660997 197513:10.90553 197631:14.99361 199134:23.70375 216640:10.694898 220560:9.2551795 223689:6.3277542 233174:6.2414672 234876:10.984924 251997:8.2686406 253607:10.385037 264294:7.3430284 264688:12.035388 271227:4.894289 273394:10.024101 273537:7.5147209 275720:17.9184 276173:2.0954785 282633:10.11939 285320:2.5665589 287285:5.8588205 293564:4.8363697 300856:9.663447 310129:30.194302 310393:13.124009 310695:6.6555455 310734:9.334574 318267:10.11939 322611:9.9358775 327036:12.138973 329002:9.8537431 332350:7.5036466 333545:4.8010098 337825:8.6742436 
11.55961966872289 56650:84.681867 73019:92.314327 107548:111.63838 134048:42.621404 136863:60.977144 154987:83.891374 157640:30.266356 277702:99.620744 
1.479674561930552 49086:38.76697 56683:49.225834 93617:43.986277 113560:21.396554 167746:25.271402 168494:49.689009 184499:47.742533 191568:29.996234 223413:30.248263 226574:35.255926 226575:32.462573 236258:44.921628 292947:64.325295 322086:55.981539 338321:27.220643 340130:51.328786 
16.60789461465576 29202:57.4801 29775:30.8895 29968:25.55694 78950:35.675234 85508:28.643706 89378:14.598703 101389:23.100497 120890:11.779795 134318:23.761768 151806:18.926087 157640:12.106542 179626:38.635489 179648:29.594046 186019:20.724309 242062:18.571625 252016:25.090113 285320:10.779548 290743:38.336893 307175:16.467688 312394:10.444537 
5.269961256489223 29781:47.078962 29968:48.679885 48269:29.944557 49086:29.536739 53719:37.020718 102117:23.71816 119615:28.875022 135693:39.228207 150935:28.592054 155244:53.373038 177654:33.041145 183491:18.433693 188745:33.350692 199191:43.62212 202208:26.511037 242062:17.687262 273537:30.058884 333545:19.204039 336472:24.503411 337951:24.89312 
22.41141784730044 1256:8.8937841 12423:5.3476048 18430:10.066427 29968:8.6633693 36363:6.2505635 37950:9.732864 42755:7.2840461 43717:7.2230549 49086:10.513077 61521:4.3690285 63947:19.48478 67118:15.94974 86132:8.705841 87860:21.346834 89378:9.897426 89459:5.8431267 96040:8.6510219 120890:7.986302 124056:9.4634209 132303:14.554744 133032:17.774488 135138:10.465487 147156:7.6832974 148406:15.582093 152345:12.900044 155052:16.544778 163066:6.3917485 172493:25.264301 176546:36.685093 185761:14.464728 186521:8.2351898 197591:18.048682 199845:10.766795 202208:18.872264 212945:6.314433 214774:10.847842 218801:10.705273 226521:6.0743069 243514:21.346834 248326:14.145995 250362:10.721248 271898:14.554744 305628:8.3635898 306185:9.9648287 306432:9.5036306 307581:10.992178 320904:10.705273 321827:16.756919 324150:37.237947 331322:8.5589343 
40 8819:11.149548 22946:6.5760058 29968:18.254957 49086:22.152554 57807:10.899837 63112:16.970696 72112:19.290844 76567:18.208459 81651:9.4526509 86132:9.1722253 89378:5.2138226 96446:8.0449104 100474:14.0967 108821:11.989463 119198:8.4730689 120890:4.2070698 123534:7.317582 124092:19.616419 134045:5.9452328 138986:6.7481527 150935:10.72202 152568:6.8076955 154933:10.734327 157640:8.6475303 159985:6.7158538 171871:13.678854 180170:18.777126 191756:19.616419 196089:6.346029 200047:18.5668 201605:5.1589038 202208:9.9416389 219426:12.024725 235173:14.515579 250362:11.2956 251919:10.596531 268043:6.6951556 276173:3.1432177 284943:12.453985 285320:11.549515 289217:19.290844 299703:25.135015 303099:11.361043 304239:7.4088127 306068:12.415581 307175:5.8813171 311687:10.729394 312394:3.7301919 316771:28.716984 
25.95460720298556 9342:36.416918 10490:35.309222 34395:35.820296 55185:33.080099 56683:28.129048 107765:30.604574 111843:26.576217 123534:14.635164 128443:30.869245 132380:24.269785 159054:24.694499 159985:13.431708 167671:12.116524 186132:18.153956 201605:20.635615 202170:25.053223 234101:21.926549 240602:45.444174 252930:18.9392 276173:25.145742 285320:7.6996768 286278:17.559889 336772:27.357709 
6.759651836338586 49086:47.713194 67118:36.19364 67194:49.956257 124056:42.949372 157640:18.62545 186575:42.887197 188014:37.729259 218406:74.648158 228282:79.98006 267893:77.151407 276173:13.540015 289217:83.099022 332392:46.825805 
11.23787278041987 17707:28.888364 29968:45.100482 32612:23.244954 34739:31.773155 37950:16.889382 42755:12.639962 48269:18.495168 50726:24.857346 52070:24.267138 78410:17.468212 82826:27.820994 94601:26.422689 114514:19.942652 114779:15.119092 120890:6.9292914 129680:11.849528 134045:9.7921482 157351:18.965597 157640:7.1214956 189558:24.811027 202208:16.374464 208730:11.370719 212990:5.5347525 256723:22.818678 276173:5.1770644 285320:6.3409103 299703:20.699424 303099:18.712307 307175:19.373751 312394:6.1438455 320959:13.936214 
1.221378401176062 34739:135.03591 37950:71.779872 42755:53.71984 82826:118.23923 157351:80.603788 157640:30.266356 208730:48.325554 299703:87.972553 
10.49239108461489 186537:209.37812 242075:135.7478 329338:236.47845 333545:100.82121 
3.047928025003983 9332:37.482683 17312:46.226082 22176:33.010409 48269:36.990336 73191:36.188777 108044:29.147 115395:29.17252 135138:36.321396 220124:46.88035 220846:38.886447 232812:49.808811 244045:43.604993 267561:29.093486 268564:33.238501 285320:12.681821 287217:42.02114 308808:64.618791 
5.156229214914791 9440:89.731649 49086:77.53394 51725:77.041266 135138:77.182967 157640:30.266356 226321:121.30326 276173:22.002524 334254:66.808835 
9.880251625742522 1392:125.94632 48269:62.88357 111843:74.413407 196251:33.643913 286987:56.700199 293499:75.447763 294069:66.41389 298975:78.851021 315978:37.692194 331809:60.814022 
8.671974896083013 9332:14.818735 9981:18.136841 17950:14.508197 22946:17.128201 29968:11.886949 44757:14.912901 48269:14.624086 58836:16.331345 62540:22.44231 67194:15.103054 73560:18.234982 83530:8.1258298 90782:18.079885 93720:12.676778 96040:11.870007 111363:20.711053 124717:14.800351 132380:15.803581 152581:20.336011 172493:17.332486 191203:17.373647 197602:11.383232 202208:12.947251 218801:14.68863 241959:13.512035 251997:16.152693 254258:16.613009 276173:4.0934928 285320:15.041229 286987:13.186093 295017:17.200315 299703:16.366987 303099:14.795777 306771:14.068099 310393:12.818799 312394:4.8579243 315978:8.7656265 333123:10.013012 334391:16.888171 335703:12.424601 
32.56229497817385 3832:23.571485 18752:28.682642 29968:17.625476 49086:21.388673 67194:22.394184 80064:22.155247 105315:14.870353 113560:11.804995 120890:8.1239968 124717:21.945348 127980:37.247907 135985:16.72286 150935:20.704591 159430:35.85313 159593:22.609522 183491:13.348536 185001:22.528191 202208:19.197648 219901:28.87974 229421:16.435159 240521:24.176331 261584:20.062501 262595:22.027781 264294:21.269462 285320:7.4341707 303390:43.429767 312394:7.2031292 325996:14.715137 
1.081575759290446 48269:69.870634 72226:103.73929 100581:96.927015 157640:26.903428 202208:61.859087 217118:46.382118 312394:23.210083 324654:64.005818 340981:98.95281 
12.22506310234952 45953:42.209283 56683:30.292821 71705:45.774943 77291:27.949062 82567:28.101405 96040:19.631165 132380:52.273382 144971:40.828892 157640:18.62545 164939:20.553834 170513:22.316492 197602:37.65223 216045:16.403747 237799:39.218219 250362:24.328985 252016:19.300087 265892:22.001669 306771:23.266472 314900:27.009532 320959:18.22428 336716:22.938265 
2.337391847395759 15850:104.95527 38416:51.294016 49086:51.689293 50110:48.532024 62540:80.418278 67118:39.209776 134622:69.671049 170513:48.352399 180275:39.216023 219981:68.232609 239688:28.171657 266813:76.611958 
12.06358457092849 26365:80.868838 46602:56.859927 48269:52.402975 80476:74.214607 134045:27.74442 135138:51.455312 147156:37.776212 152897:64.139938 251919:49.450476 277581:59.637942 337950:52.222463 338497:90.02394 
6.216356923615438 13084:47.900083 29634:19.948038 48269:26.201488 54276:23.186081 110904:52.477635 119679:45.771643 128000:35.214573 144127:41.481562 148447:34.015898 156024:21.807885 219770:25.727656 240602:26.509101 246081:22.988059 262595:26.616902 272829:35.934752 285320:35.931825 286278:20.486537 286599:52.728598 299509:30.217909 325534:29.947752 
40 3832:14.544108 18752:17.6978 19791:15.109725 24992:7.4564692 35257:8.6412105 36665:8.3359033 39655:17.130505 48269:13.379483 49086:39.591799 50110:12.391155 67118:10.011007 75606:17.668453 80221:9.5498286 84959:17.819414 103162:12.131895 109343:13.981244 117668:16.360335 128018:14.465052 147156:9.6449903 148726:18.05055 154687:19.86497 177848:11.379286 183491:8.236331 191608:9.9598113 198602:10.984554 202208:11.845357 204690:16.376154 214301:18.844602 216359:13.870822 220724:11.902761 226521:7.6251937 238078:16.567174 239688:7.1927634 254258:15.199136 276175:5.523149 285320:4.5870415 286987:12.063872 294614:13.77051 298805:10.705174 309716:9.7159644 310393:11.727838 312394:8.8889679 333545:8.5805282 
5.812371662758246 9332:42.480374 22176:37.411797 48269:83.844761 56683:52.507556 91547:47.827316 133286:47.652633 147156:30.22097 187703:51.361888 202208:37.115452 209778:64.69507 294069:44.275927 310695:37.271055 311687:40.056404 312394:13.92605 
12.37850685579022 49086:26.968327 67194:28.236145 92546:51.745588 104243:43.955329 117895:36.045944 149718:51.745588 159593:28.507658 163066:16.396224 170008:35.052317 184300:21.464683 197860:29.789692 210813:35.392544 221887:41.126687 234517:40.941646 244758:24.43545 268015:45.718221 285320:9.3735196 290070:37.664377 302770:35.817059 311838:29.143427 312394:9.0822064 312427:23.044587 320959:20.60136 
18.84480938371109 11238:47.295691 29968:25.55694 32862:29.182689 48017:53.243611 59307:40.819078 64783:24.616357 88213:44.167161 91586:40.474113 101357:36.309568 120890:11.779795 129680:20.144197 134045:16.646652 142041:32.494039 180275:23.529614 186537:41.875623 189920:30.253602 191608:23.405557 219753:35.060077 307175:16.467688 
12.38448004869569 17363:38.304443 29968:36.509914 38018:66.689541 49086:44.305109 82567:52.188324 94859:38.952766 123975:28.111374 182087:27.753552 240714:30.61386 275720:53.755201 310129:45.291454 328284:63.978901 331097:26.377552 333545:28.806059 
40 120:49.413418 15773:39.06678 29968:36.509914 122563:44.05817 157640:17.295061 177805:33.903423 204690:54.977089 220560:55.531077 290077:31.787453 298001:33.576337 307175:23.525269 310904:32.245678 315978:26.922996 333545:28.806059 
5.497914725430835 31823:28.219758 44339:27.143454 49086:47.713194 62540:37.116128 85508:22.03362 96040:19.631165 103881:32.268999 106235:17.621616 132380:26.136691 140420:41.549511 167567:23.698816 182029:44.215462 202208:42.825522 230540:19.969926 232345:25.377616 285320:8.2919596 286987:21.807769 289824:30.806403 293940:19.565162 298027:24.561701 307038:38.575704 330523:22.021607 333123:16.559982 333545:15.510955 
6.62512145276157 17202:91.178936 85557:81.191552 89483:67.440751 231397:60.688532 242062:33.766591 251997:63.142346 264611:20.606907 276173:16.001836 287004:68.245782 290743:69.703442 337825:66.239678 
39.44310349831556 2153:11.045462 3040:11.441737 9981:13.446279 14927:10.976071 29968:17.625476 35865:13.757779 44041:12.579853 46001:7.4117831 49086:32.08301 56381:6.8325194 57938:16.23548 67118:8.1123675 67862:7.804384 71901:5.0863962 72112:18.625643 80221:7.7386542 81762:7.830516 86975:10.783229 96156:6.0122417 97690:8.3020092 101935:12.056058 105564:9.6111062 106429:5.7259233 114365:21.714883 118795:12.742458 140913:18.625643 147156:7.815768 150935:10.352295 152578:10.774131 163587:13.519038 171871:13.20717 175902:15.686422 186887:8.2004983 202208:9.5988238 209181:9.0944265 216787:13.270332 226410:16.830033 231397:11.509894 237799:17.580581 239688:5.8286186 261584:10.031251 264611:3.9082065 271979:21.714883 275720:25.950787 276173:3.0348309 285320:3.7170854 297062:17.910385 303099:10.969283 307175:5.6785131 310393:9.5035927 330519:9.7573481 332302:8.6919754 334929:14.71412 
3.160411685342484 29968:63.892349 49086:77.53394 134622:104.50657 150828:47.723099 157640:30.266356 166677:112.63892 191157:44.139614 274419:78.468345 
3.639144746320679 3832:45.571537 35257:27.075793 49086:41.351435 63071:31.814584 67118:62.735642 73294:41.21876 105771:83.964216 134622:55.736839 135138:41.164249 148726:56.55839 166677:60.074089 192158:30.782336 193350:32.738456 307703:49.344503 
2.927760480218875 3832:62.143005 29968:46.467163 48269:57.166882 49086:56.38832 67118:42.774302 114779:46.731739 120890:21.41781 135138:56.133067 166677:81.919213 238078:35.393508 286718:60.120165 
6.76675339509822 2482:78.233166 49086:56.38832 56683:71.601213 70254:44.230333 71901:26.81918 106429:30.191232 136863:44.347014 184125:64.78702 234187:56.059337 285320:19.599177 290743:69.703442 
23.80247753739252 9332:13.852296 46441:13.878331 48269:13.670341 50877:27.379635 67194:14.118073 71901:6.4132822 88003:11.339671 94026:23.484506 94822:13.246397 108829:15.393921 122376:16.668214 128018:14.77951 135138:26.84625 137988:42.704537 156274:21.977665 169815:18.832188 172493:16.202106 176695:9.6966479 184448:23.484506 189878:18.748566 190468:20.867174 197602:10.640848 220560:16.900763 223413:21.04227 223549:15.024027 238078:8.463665 238895:14.70163 240602:13.830835 250192:20.978681 261308:18.668042 261584:12.648099 267136:16.972045 271979:27.379635 276173:7.6530518 279369:17.368396 309854:20.659978 317368:25.872794 318224:11.656303 318937:11.491499 321731:13.86094 324867:15.765865 333545:8.7670614 
4.846104685955304 3700:26.487678 3832:31.071503 4257:46.782033 9332:28.963891 46602:31.014505 48269:28.583441 49086:28.19416 50110:26.472013 67118:42.774302 82965:36.948746 94504:25.524941 101332:34.012021 134045:15.13332 135138:28.066534 159593:59.606922 180563:41.639296 264604:43.864515 277617:16.899764 285320:9.7995887 324197:50.946991 
2.33320910985865 32862:48.637815 49086:51.689293 67118:39.209776 103162:47.516589 118475:73.233082 120890:19.632992 134622:69.671049 196228:33.65182 206061:42.703402 312394:17.407562 318007:49.877359 333545:33.607069 
25.08004730591875 266:20.32366 3832:18.98814 5239:23.706081 6345:16.614578 23610:22.485618 29968:14.1983 53459:18.273542 56985:19.928048 57354:17.29092 61521:14.320704 71338:14.508731 83530:9.7058523 113560:9.5095796 134045:9.24814 145091:15.418332 152602:19.625565 157859:17.661841 159054:38.413665 169173:24.349975 176695:12.390161 180252:29.579784 192424:16.522894 198280:25.272569 203837:33.059681 204796:11.96278 209895:15.674612 211978:12.565906 238078:10.814683 239688:9.3905522 242075:15.083089 266832:24.118359 288845:12.276799 327226:29.579784 337117:10.250761 
7.263265037029647 11354:21.453381 16755:43.211491 48269:25.153428 64219:22.290624 82567:29.225461 118712:21.520512 123707:17.457286 132380:27.182159 146473:40.118732 157640:19.370468 164939:21.375987 197602:39.158319 201288:21.978421 228822:50.378529 250362:25.302144 264611:27.201117 266660:35.063964 304265:12.836987 308063:31.065274 312765:22.055058 322189:21.561932 
11.24730041089242 49086:124.0543 147156:90.662909 199191:183.2129 312394:41.778149 340468:171.38561 
25.08917029102398 3832:42.723316 9332:39.82535 29968:63.892349 48269:78.604463 49360:52.074703 55642:36.153062 61521:16.110793 119615:37.898467 120890:14.724744 149235:59.397437 209175:41.371765 224266:45.889743 313493:45.237788 
31.19803351030101 49086:36.48656 51579:23.741796 63071:28.071692 65379:41.421604 65908:47.423723 112888:29.767082 137776:48.164195 157640:14.242991 196221:40.898384 223549:40.65325 238078:22.901682 275720:44.268989 276173:10.354129 285320:12.681821 312394:12.287691 316636:58.998135 333545:23.722637 
3.757878648915074 9125:59.97444 48269:29.944557 49086:59.073478 50110:27.732585 59699:20.777411 65379:33.531775 71901:14.048142 134622:39.812028 147156:21.586407 156024:24.923297 220724:26.639514 234574:54.742953 241959:27.667501 242075:25.856724 251919:28.257415 285320:10.266236 307175:15.683512 312394:9.9471784 333545:38.408079 
32.20714351901593 13725:24.309074 48269:66.193232 49086:32.64587 122416:29.704303 134045:17.522792 141040:37.486114 150935:31.601744 172493:39.226151 181485:36.841689 187703:81.097718 187983:52.034643 202208:29.301673 232807:26.394492 271227:21.637909 274962:31.755798 295002:37.924003 340261:47.884867 
0.3441071455932077 55967:53.373038 57717:41.25146 113560:16.302137 115041:54.742953 120890:11.218853 122416:26.875322 135138:29.403035 148276:28.691195 171871:36.476945 192681:29.175874 201605:13.757077 231533:41.742814 247392:46.482948 259375:24.001417 267483:39.289652 276175:12.361334 286718:31.491515 299703:33.513354 321913:33.159145 333198:48.555891 337115:51.442252 
9.702108150452119 18430:12.911287 18752:18.082535 21856:13.990298 22323:16.458156 26632:16.936111 29968:11.111713 46001:9.3452918 63071:10.374321 68878:24.365952 96040:22.191752 105315:9.3747875 113738:12.762608 119872:12.070318 134143:22.16682 153735:29.817652 157640:10.527428 168494:17.283134 177788:19.415371 202208:12.102865 208698:13.282602 221566:14.228041 226075:16.319643 238949:13.506122 254692:19.306653 259377:13.714422 261584:12.648099 264611:9.8554773 267903:8.9563678 273341:24.991348 277581:15.557724 285320:9.3735196 286278:10.688628 290461:9.3957863 299509:15.765865 312310:15.367781 314108:19.529814 331809:13.22044 334727:15.307984 340468:37.257742 340718:17.573419 
8.096957656725412 17363:44.688517 26681:71.263175 51540:47.39898 59699:36.360469 67118:39.209776 94778:42.618367 105771:104.95527 135138:51.455312 182682:49.568682 286718:55.110151 323606:84.247714 324432:45.353029 
17.19933588052902 19444:18.312627 21850:28.627016 48269:58.953347 50502:23.345839 56683:24.612917 67194:20.294729 72112:33.758978 83530:10.919084 84208:26.563399 87008:11.895301 123534:12.805769 128900:29.176674 143403:15.960808 170903:19.316167 172655:20.31582 177805:14.832748 191608:14.628473 199134:31.111172 202208:17.397868 241206:18.604532 277617:11.618588 299071:18.96293 303930:24.755636 307175:10.292305 310393:34.450523 311058:48.6403 330523:17.892556 333545:12.602651 
4.033891249010414 21575:93.564066 42084:80.736911 48269:57.166882 55642:52.586272 56985:65.219067 81762:41.288175 89483:67.440751 122416:51.307432 191608:42.555557 326160:74.108919 328173:69.443684 
28.37045088991681 13725:38.489366 48269:52.402975 67194:54.119278 157640:20.177571 186575:46.461131 196228:33.65182 285320:17.965913 289217:90.02394 294207:81.345158 312394:17.407562 312765:45.948037 331223:42.1968 
30.9147517856211 28153:18.943509 32198:36.651393 36363:17.561107 43717:20.293345 49243:32.566143 64217:49.511465 67194:30.925302 124056:26.587706 134048:16.236725 142960:48.141551 157640:23.060081 173541:24.815544 192951:29.773861 211920:18.794104 253058:52.31045 271227:19.577156 276154:28.037 297437:28.552968 304265:15.282128 312427:25.23931 
10.16880634582096 9726:74.425589 45508:46.680143 61622:72.355078 65379:58.680606 81713:45.411968 108824:38.114205 114834:58.909828 119679:91.543287 130131:99.179043 159047:51.267435 265659:90.02394 277617:30.982901 
4.377456840236674 9332:7.4965365 16742:8.3260934 24515:14.001747 29775:21.804353 29968:6.0133975 36363:4.3386264 40984:13.18628 45508:6.5901379 45954:11.128398 48269:14.796134 49086:21.891936 59591:6.5815269 59699:5.1332427 67118:5.5354979 68902:7.0558666 71901:3.4707174 79974:5.9254557 85508:6.7396956 96446:5.3001763 106235:5.3901414 108824:5.3808289 109945:8.9541479 114487:7.576205 114779:6.0476368 116176:11.484022 120890:5.5434331 123990:7.7336576 128568:5.8939521 132145:7.6430095 132380:7.9947526 134059:6.4749677 135138:7.2642793 138986:4.4458418 145091:13.060234 146051:7.5344905 147156:5.3331123 157351:7.5862389 157640:2.8485982 159047:7.2377555 172493:8.7681986 177343:7.2210149 182087:4.5711733 186019:4.876308 197602:5.7585764 199273:15.713954 209175:3.8938132 216640:10.569076 220724:6.5815269 226573:5.4841795 238078:4.5803364 238488:7.2118165 243604:6.29796 271227:4.8367091 285320:2.5363641 289899:10.507142 291489:7.4734224 293767:9.0376205 294069:15.626798 298239:8.0019044 303099:7.4849227 305784:7.719466 310393:6.4848044 310540:7.6456562 311687:7.0687773 312394:2.4575382 313251:14.993073 313493:8.5153483 316771:18.919425 317335:5.7490245 329204:7.4849227 333545:9.4890547 336472:6.0537838 337877:4.9610954 
40 4891:10.355527 5290:7.6781021 10730:9.1075098 11326:9.2005827 18598:12.56148 29968:5.9434743 36363:4.2881773 39655:9.3620204 42755:4.9971944 49086:28.849838 49115:6.1886441 51263:3.4028924 51725:7.1666294 54241:5.9105903 56683:9.1582947 60477:7.307807 61521:2.9973568 64219:6.4798324 79471:8.2481094 81549:7.9339433 81762:5.2810457 82787:5.2966888 96040:5.9350034 101935:8.1308297 102242:11.104779 106429:3.8616692 118712:6.2559627 120890:2.7394873 123707:5.0747925 127980:6.2801704 134048:3.9647818 138520:20.711053 142491:5.5173472 150828:4.4393581 172493:8.6662428 177805:5.5191619 180275:5.4720033 182087:4.5180202 202208:6.4736254 202655:5.6446544 208730:8.9908008 211920:4.5892579 211978:5.2601468 212758:6.3709886 216754:14.390122 227238:5.6583913 236123:7.7877656 242062:4.3189825 243242:3.7659545 246563:6.1344037 249880:10.355527 250362:7.3552745 252016:5.83491 264611:10.543069 268043:8.7192724 275720:8.7508467 276173:4.0934928 285320:2.5068715 287285:5.7225688 290743:17.831113 293564:4.723896 293940:5.9150491 294730:6.8448235 301150:13.938145 304265:3.7316823 304824:6.2960029 322100:8.9497588 327032:11.221155 330519:6.5805371 332423:10.812553 340468:19.92856 
2.854925160646403 873:46.382118 49086:68.919058 61521:28.641409 108834:81.936406 157640:26.903428 246563:29.308818 254184:59.985501 272829:95.826005 333545:44.809425 
40 4891:10.355527 5290:7.6781021 10730:9.1075098 11326:9.2005827 18598:12.56148 29968:5.9434743 36363:4.2881773 39655:9.3620204 42755:4.9971944 49086:28.849838 49115:6.1886441 51263:3.4028924 51725:7.1666294 54241:5.9105903 56683:9.1582947 60477:7.307807 61521:2.9973568 64219:6.4798324 79471:8.2481094 81549:7.9339433 81762:5.2810457 82787:5.2966888 96040:5.9350034 101935:8.1308297 102242:11.104779 106429:3.8616692 118712:6.2559627 120890:2.7394873 123707:5.0747925 127980:6.2801704 134048:3.9647818 138520:20.711053 142491:5.5173472 150828:4.4393581 172493:8.6662428 177805:5.5191619 180275:5.4720033 182087:4.5180202 202208:6.4736254 202655:5.6446544 208730:8.9908008 211920:4.5892579 211978:5.2601468 212758:6.3709886 216754:14.390122 227238:5.6583913 236123:7.7877656 242062:4.3189825 243242:3.7659545 246563:6.1344037 249880:10.355527 250362:7.3552745 252016:5.83491 264611:10.543069 268043:8.7192724 275720:8.7508467 276173:4.0934928 285320:2.5068715 287285:5.7225688 290743:17.831113 293564:4.723896 293940:5.9150491 294730:6.8448235 301150:13.938145 304265:3.7316823 304824:6.2960029 322100:8.9497588 327032:11.221155 330519:6.5805371 332423:10.812553 340468:19.92856 
1.511726115213311 14528:30.422198 23496:25.580974 24251:29.244513 40720:25.104795 42404:26.239679 49086:51.689293 56683:32.817223 100715:37.321026 138503:43.401346 138986:15.74569 141742:38.037068 142041:27.078366 157412:31.572302 171816:33.728428 171871:31.917327 191919:34.015898 201605:12.037442 206561:31.770079 286278:20.486537 290927:38.169355 299703:29.324184 310393:22.967016 
34.87651942573344 3832:11.392884 25151:12.246014 25368:11.593796 28171:17.525318 28980:14.252635 29714:13.491371 29968:25.55694 38416:10.258803 49086:10.337859 50110:9.7064048 60477:10.474523 63071:7.953646 67118:7.8419553 72112:18.004788 89450:10.610202 105771:20.991054 114924:18.680563 115159:12.087163 119615:10.106258 120890:3.9265985 134045:5.548884 134622:13.93421 135138:10.291062 152581:14.574141 166570:15.694297 167746:6.7390404 177805:15.821597 182960:10.329504 186537:13.958541 191919:13.606359 192158:7.6955839 196221:11.587875 201605:4.8149769 214489:17.329013 220724:9.3238298 221210:11.927588 222298:9.2307617 233174:8.7380541 238078:6.4888099 243096:7.3618608 247911:10.420852 252016:8.3633709 264611:3.777933 267561:8.2431542 267893:16.716138 276173:2.9336698 283135:17.715414 285320:10.779548 286824:13.09739 286987:9.4500332 312394:3.4815124 315032:6.1053542 322189:8.9841384 327769:19.835809 
8.650572632876857 29968:46.467163 48269:57.166882 49086:56.38832 69684:93.564066 86975:56.857027 226698:58.524121 231397:60.688532 293546:65.843402 306704:49.86139 307175:29.941251 333545:36.662257 
38.58943722620152 50110:48.532024 67118:39.209776 80705:80.868838 135122:88.739351 196221:57.939377 202208:46.394315 276173:14.668349 284694:59.458723 293564:33.854588 310393:45.934031 333545:33.607069 338106:39.12899 
16.78233662566701 29781:329.55274 29968:170.3796 288247:192.7796 
7.059717900545667 9625:32.279868 36665:17.808521 48269:28.583441 65908:36.645604 67118:21.387151 135138:28.066534 160948:26.498152 195180:32.986792 203018:35.602084 206273:28.692571 232114:34.265393 260397:45.252614 260707:40.368456 267561:22.48133 271227:18.687285 285320:9.7995887 299703:31.990019 307175:14.970625 325010:24.395317 333545:36.662257 338106:21.343086 
12.69872226699046 25968:59.688187 32198:48.104953 49086:38.76697 68292:53.902128 79908:125.37104 134048:21.310702 158614:70.052112 202881:54.021179 210251:59.688187 212972:36.976814 227489:59.397437 232114:47.114916 276173:11.001262 288377:74.384282 322189:33.690519 
5.74829333183196 21850:43.62212 22946:17.536015 41105:59.97444 46347:56.673739 51135:20.997909 84288:59.97444 113560:16.302137 115395:23.61585 132905:39.54368 147156:21.586407 150534:28.418641 157640:23.060081 166417:43.62212 177805:22.602282 216045:20.309401 252923:29.953255 264611:10.794094 326160:38.818957 329338:45.043515 333545:19.204039 
13.79976230732934 13725:30.791493 29968:34.075919 53274:42.86143 84605:86.741166 151933:74.722253 178073:70.101272 219753:23.373385 242062:24.762166 244059:70.101272 271227:27.408018 293564:27.08367 303099:42.414562 306185:39.194993 316771:53.605036 
5.643661867664015 5290:55.026398 45012:73.420356 60646:88.739351 101408:66.662604 137776:68.232609 153125:44.43921 172493:62.108073 182087:32.379144 198883:52.681294 268043:31.244059 285320:17.965913 333545:33.607069 
9.5666397947252 44290:79.21244 62540:160.83656 269521:151.13786 285320:35.931825 297062:86.566862 303099:106.03641 
8.8946320509235 9332:39.82535 43101:66.554514 48269:39.302231 51064:39.925352 67118:29.407332 135138:38.591484 176651:50.592642 199890:52.344529 238078:24.333037 241368:52.921862 285320:13.474434 286718:41.332613 292438:37.424888 297062:32.462573 307338:48.691321 312394:13.055672 
40 36245:11.748084 38482:18.359866 48269:10.841995 49086:42.777346 56683:27.159081 67194:11.197092 72112:18.625643 84208:14.655669 89378:5.0340356 95981:11.610079 96446:7.7674997 100474:13.610607 109459:17.744909 110890:13.475015 117846:8.7193143 119198:8.1808941 123707:7.5246923 124056:9.6265833 134048:5.8788144 151082:8.5265793 157640:4.1746698 159054:11.921482 183491:6.6742682 195180:12.512231 202170:12.094659 202208:9.5988238 211024:9.5866283 222324:16.402357 234101:21.170461 244005:8.6659535 244106:10.648737 250362:10.906097 252379:7.4869774 264083:10.00976 264611:7.816413 275720:12.975393 276173:3.0348309 293564:35.021987 310540:11.204841 311136:15.584973 312394:3.6015646 312765:9.5064904 328863:12.237007 329338:16.308859 333545:13.906373 336716:10.282671 
20.59494486077183 21850:114.50806 48269:78.604463 67118:58.814665 82567:91.329566 156024:65.423655 285320:26.948869 299509:90.653726 340291:99.022544 
4.557733037949256 8814:45.252614 38875:24.766581 48269:28.583441 49086:56.38832 56683:35.800607 92786:32.007603 97802:45.589468 113560:15.56113 126739:13.122624 134547:24.684935 156287:39.466406 167386:30.106229 199273:30.356501 199845:28.874587 208730:17.572929 235393:46.086651 252837:25.593167 285320:19.599177 328061:30.211806 
29.70645183515235 22077:18.86745 29968:17.03796 46285:39.671617 48269:20.96119 49086:20.675717 53421:24.111134 69098:18.239219 69588:21.480099 71901:9.8336994 81621:30.995985 102124:36.617315 119214:18.048542 128018:22.661915 128900:31.121786 134045:11.097768 134048:22.731416 153049:32.167311 156024:17.446308 157640:24.213085 184300:16.456257 191157:11.770564 194376:22.243513 289217:36.009576 298239:22.672062 302770:27.459745 303099:21.207281 303930:26.406012 
36.81791264747217 9332:53.100467 48269:52.402975 67118:78.419553 67194:54.119278 89378:24.331172 134045:27.74442 155004:46.920806 157164:45.281553 164311:56.604283 176695:37.170484 333545:33.607069 
8.002312913474592 19630:65.250041 49086:77.53394 100732:135.03591 265435:91.714212 285320:26.948869 298239:85.020234 310393:68.901047 310524:54.105849 
9.174430724293657 11836:25.416063 20308:30.644783 40119:22.343294 44290:15.842488 49086:20.675717 67952:33.432277 84605:21.685291 128892:24.709496 147515:20.423112 152345:25.370086 152568:12.707698 155052:32.538063 159261:21.306989 177796:21.240187 202208:18.557726 226521:11.946137 236301:37.361127 241018:22.474766 247210:30.874759 252834:24.158416 252942:27.17327 254184:17.99565 259668:32.740145 265872:21.50865 272989:20.924892 296333:38.320067 298530:27.459745 309174:24.545079 321632:56.55839 
6.848721304092257 9332:45.514686 48269:89.833672 145038:36.961803 194497:22.320393 217118:29.817076 218801:45.115078 254350:78.465674 264611:16.191141 285320:30.798707 297229:53.193842 312598:45.486398 321732:66.689541 
4.41489105091398 266:66.513797 56985:65.219067 89483:67.440751 193956:95.592643 204796:39.150916 220560:70.675916 286987:51.545636 298975:71.682747 304265:29.174971 310540:59.080071 332392:55.339587 
7.865834139653866 683:15.210126 17034:27.039907 18159:9.3266124 23800:6.9519057 27404:7.5778524 30312:10.422384 33232:15.316269 35203:11.484206 38349:15.210126 40757:18.309977 48897:10.664111 49086:9.5426388 56105:12.775651 61521:3.9657335 63817:30.420253 67194:9.9912513 77378:7.3710727 81382:11.010082 82982:19.376357 84650:14.249889 86818:16.38265 87306:15.687288 89459:5.3037612 91773:19.376357 92057:10.827391 96378:13.48614 106549:13.077366 114509:14.044456 126739:4.4415034 130871:19.376357 146473:15.430281 148349:10.70745 151597:15.996012 155393:13.589896 161600:8.2964862 164240:9.3582877 164729:12.840211 168609:15.687288 172249:5.3942056 176028:13.453053 178874:14.55252 188170:14.487044 198883:9.7257774 199191:14.0933 210859:15.017568 212014:9.9008261 212758:8.429308 213206:16.177217 230037:7.4736748 230502:8.7754203 239729:10.851337 244138:10.540968 244771:14.55252 246563:4.058144 252930:8.1584248 254460:9.8910992 264393:10.591085 264859:9.4994421 278910:15.316269 299295:14.195902 310393:8.4801289 310740:11.795967 327495:15.316269 
11.50723705027978 873:10.703566 2198:18.670324 24992:8.9860013 34739:27.699674 48269:16.123992 49086:15.904398 55332:18.826561 70992:21.753227 77438:13.35426 85557:22.900181 93626:22.314903 111732:20.563901 128018:17.432242 169173:22.4769 179624:18.645186 179648:60.705734 197809:30.516629 202208:14.275174 240854:20.842883 254184:13.842808 259297:19.893206 273251:22.018716 284508:13.355849 285320:16.583919 286987:14.538513 288988:15.874508 299415:28.739328 304265:8.228838 311687:15.406309 312394:10.712346 323294:26.389865 326160:20.902516 328284:22.966785 
2.458933896434198 49086:88.610217 54854:80.462698 56683:112.51619 202208:79.533112 283135:75.923201 312394:29.841535 329338:135.13054 
7.672490674612622 21850:43.62212 29968:24.339942 32612:37.634688 40975:31.613309 48269:29.944557 49086:29.536739 55185:44.106799 83530:16.638604 102242:45.476714 108657:32.958615 132380:32.359713 147156:64.759221 159593:31.222673 168127:56.673739 286987:27.000095 307175:15.683512 311687:28.611717 329338:45.043515 330523:27.264847 
4.302105702556699 21850:24.7585 29781:26.720492 35257:10.976673 43717:11.517844 49086:16.764095 65379:19.031548 78950:19.28391 94966:15.737018 119601:17.564345 135138:16.688209 142557:18.277702 157640:13.088154 159593:17.720977 160441:11.220897 174107:32.166176 177805:38.484967 181582:16.83287 181589:15.171964 199191:24.7585 201288:14.850284 263776:11.744104 280731:30.292805 286718:17.873562 297437:16.205739 299699:34.039547 299703:38.042185 299966:22.841885 305715:18.762549 310906:15.23293 322189:14.568873 333545:10.89959 334917:22.557127 338875:12.719724 
5.525356851049013 21850:76.338709 49086:103.37859 115367:70.429147 134048:28.414269 151508:82.388184 175723:81.850363 177612:63.311834 239688:28.171657 255381:68.131598 285320:17.965913 313394:62.108073 
33.4457527708095 120:14.71889 21850:19.490734 34949:15.882412 35257:8.6412105 40844:20.220404 47133:17.36982 54377:12.942313 56840:19.423184 67194:27.635376 71901:6.2768294 78950:15.180951 84120:26.79709 96040:21.719587 105771:26.79709 126127:9.376121 128689:23.372754 134318:10.111391 134622:17.788353 138986:8.0403521 145747:13.851347 157640:10.30344 160441:8.8334718 165119:20.768977 167671:7.2183544 172493:15.85738 174904:17.447198 177805:10.098892 177848:11.379286 183387:19.86497 191203:15.895039 218642:17.639505 221694:17.344641 222324:10.120603 239688:7.1927634 240854:17.295158 265892:12.171136 281090:17.2468 284146:19.114286 306704:11.669687 309246:10.481997 311687:25.567918 330519:12.040983 331322:10.744194 
25.24329947020275 56683:90.878463 63330:19.902509 67322:20.819386 79471:27.282208 81759:31.992178 83910:26.894283 98468:65.1346 129442:26.528996 177612:29.220846 184300:18.987989 190468:36.918846 207162:34.766478 208592:32.326837 220846:25.425754 222324:18.294936 238078:29.948353 276173:6.7700073 276175:9.984154 285320:8.2919596 291433:26.452325 307175:12.667452 321337:24.343581 
26.85489371489765 13725:10.741219 29968:11.886949 42755:9.9943888 44290:11.052899 48269:14.624086 49086:14.424919 50110:13.543821 65379:16.375983 68155:36.759463 80490:22.841962 94822:14.170564 97690:11.198059 128085:13.650229 131345:13.087593 132108:18.748914 134045:7.7426288 143810:25.184011 147156:10.542199 152568:8.865836 152581:20.336011 155568:13.703888 157640:5.63095 160441:9.6551901 167746:9.4033122 172493:17.332486 185759:16.979831 191608:10.886305 204690:17.899518 261584:13.530524 267275:23.324844 276173:4.0934928 276175:6.0369303 285320:10.027486 297229:17.318925 307175:7.6593897 310129:14.746055 311687:13.973164 333545:18.757434 339132:16.544171 
18.88614245409113 51263:22.511442 56683:60.585642 81395:35.044597 142650:41.65048 147156:34.87035 150935:46.187164 202208:42.825522 242531:41.70929 243242:24.913237 262005:61.230026 265659:166.19804 307175:25.334905 
40 49086:62.027152 56650:67.745494 101332:74.826445 108824:45.737046 123112:62.993663 135138:61.746374 191608:46.811113 276173:17.602019 285320:21.559095 286718:66.132181 
40 9332:23.600208 29968:18.931066 48269:23.290211 49086:22.973019 61521:9.5471363 67118:17.426567 93720:20.188943 95901:21.424037 119615:22.458351 128085:21.739254 134048:12.628564 148726:31.421328 150935:22.238264 163066:13.967154 167746:14.975645 202208:20.619696 207618:20.271777 209175:12.258301 232114:27.91995 261584:21.548612 276173:6.5192663 285320:23.95455 303542:9.539539 312394:7.7366943 333545:14.936475 
21.13231448794716 21850:24.106961 29968:13.451021 49086:32.64587 57783:17.292591 67118:12.382035 94822:16.035112 101389:24.316313 124077:17.804439 126739:7.5973084 129636:26.017321 142457:29.186197 150514:24.470514 157640:12.743729 171871:40.316623 194376:17.560668 200845:22.15854 202208:14.650836 204796:11.33316 232740:29.495626 272829:22.695633 282104:17.108059 298239:17.898997 299703:18.520538 307175:8.6672042 307886:14.978657 312394:5.4971249 313493:57.142469 326160:21.452582 329403:14.072505 330987:22.458393 333545:10.612759 
1.444861792406572 49086:124.0543 128085:117.39197 147156:90.662909 176690:171.38561 333545:80.656965 
27.39723831611645 23785:48.316832 51264:53.131063 71901:19.667399 83530:23.294045 100645:38.622329 119872:37.015641 147156:30.22097 170648:45.894702 172493:49.686458 202208:37.115452 212990:12.545439 222437:41.624977 280444:83.964216 285320:14.37273 305628:32.896787 
0.6474401673902224 9332:106.20093 48269:104.80595 134045:55.48884 285320:35.931825 315978:62.820324 337825:121.43941 
40 9332:23.600208 29968:18.931066 48269:23.290211 49086:22.973019 61521:9.5471363 67118:17.426567 93720:20.188943 95901:21.424037 119615:22.458351 128085:21.739254 134048:12.628564 148726:31.421328 150935:22.238264 163066:13.967154 167746:14.975645 202208:20.619696 207618:20.271777 209175:12.258301 232114:27.91995 261584:21.548612 276173:6.5192663 285320:23.95455 303542:9.539539 312394:7.7366943 333545:14.936475 
7.144389609765745 1495:45.774455 95403:53.49062 150935:42.888081 202208:39.766556 207618:39.095571 232114:53.845618 261584:41.558038 278810:56.65138 285320:30.798707 308535:33.825752 312394:14.920768 333545:28.806059 340468:61.209147 
10.12871140480419 19451:13.57452 22077:12.043053 24652:18.431504 29781:21.035281 29968:21.750587 30344:20.768977 37955:13.827251 48269:26.758966 49086:65.986332 63571:21.035281 67118:10.011007 109602:24.459617 144166:23.372754 147156:9.6449903 161600:11.473864 164939:11.370206 168501:21.339751 169173:18.651045 171871:32.596419 202208:11.845357 214199:16.179148 215462:51.060718 239688:14.385527 265435:15.61093 267903:8.7658068 270782:19.86497 275015:19.057545 282104:27.664096 285320:9.174083 312394:8.8889679 328691:18.895873 333545:17.161056 338533:16.252777 
26.82740289642278 120:39.530734 18752:23.765618 29968:14.603965 47836:12.652617 51254:21.969593 62720:19.736163 67194:18.555181 82567:20.875329 89864:25.108485 97419:16.839718 120890:6.7313117 137776:23.394037 143571:53.135974 158175:22.033801 159985:10.745366 177805:13.561369 178663:37.68969 192158:13.19243 202208:15.906622 252016:14.337207 266295:23.096494 285320:12.319483 296854:25.108485 299509:41.441703 302865:21.593371 307175:18.820215 312394:5.9683071 333264:21.538247 333545:11.522424 
34.3060571068556 19630:15.818192 30231:21.068864 43717:12.913947 48269:19.055627 59699:13.221989 67194:19.679737 102242:28.939727 151892:24.302792 157640:14.674597 163066:11.427672 175759:13.626975 184300:14.960233 192951:18.947003 197688:59.527537 200477:27.39177 208730:11.715286 219487:22.862959 228263:29.95934 259335:34.836424 261584:17.630683 268885:17.488928 276175:7.8663032 285320:13.066118 290352:31.188022 312394:12.660045 321731:19.32131 326160:24.702973 331505:25.515894 338745:17.102477 
13.39294799119553 29968:56.793199 51540:63.198639 120890:26.177323 172249:38.958151 176058:41.942435 254506:95.017567 257054:74.416427 274712:120.03192 277766:58.455066 
14.42540919850892 77284:41.035213 87377:63.060921 134045:22.195536 197137:68.613648 206843:130.96058 216045:28.433162 221694:54.34654 260707:59.207068 276175:34.611734 294069:44.275927 303099:42.414562 307175:21.956917 318699:66.864553 
9.312263482109142 29968:46.467163 49086:56.38832 85508:52.079466 106429:30.191232 119615:55.125043 157640:22.011895 171871:69.637804 206061:46.585529 219426:61.216783 274419:57.067888 333545:36.662257 
14.40091057965836 32862:10.611887 48269:11.433376 51725:11.206002 55260:18.539522 59699:7.9331932 62540:52.637418 67118:25.664581 73685:19.361313 76567:18.539522 83530:6.3529215 95113:21.639064 106060:13.293507 114339:9.9722779 130809:17.452546 134622:15.200956 143176:13.953912 157640:13.207137 158072:16.435062 158375:15.025271 159054:12.571745 159593:23.842769 167423:12.094242 168317:18.712813 172493:13.550852 182568:12.897044 183491:7.0383192 196221:12.641319 199041:16.147382 236162:12.417166 238078:7.0787017 240714:7.7926189 272389:8.6593057 276268:11.795654 285264:20.901855 297062:9.4436577 303099:34.702824 307175:11.9765 309107:20.378796 316771:14.619555 324067:16.192278 325010:9.758127 326160:14.821784 329403:9.7228213 333545:7.3324514 334254:9.7176487 
20.9394989485725 25305:15.791061 35989:26.766863 45863:14.658149 48269:30.674912 49086:45.385721 56683:57.630245 61521:6.2871386 62720:16.847944 67194:15.839789 70421:16.719121 79068:20.732409 85424:24.657868 114779:12.537784 124717:15.522319 144635:25.972493 145087:18.135554 172719:23.808339 177805:11.576779 178919:23.071069 184125:17.381883 194497:7.6215977 199273:16.288854 224016:30.718615 229043:14.543001 254184:13.167549 285320:15.774948 297062:12.668321 306185:14.339632 307175:8.0330185 315978:9.1932181 325996:10.408268 330479:24.113615 333545:9.8362152 
40 10992:65.667392 35257:14.504889 44757:22.901955 48269:44.916836 49086:44.305109 56683:28.129048 96446:16.089821 120890:8.4141396 133143:25.918194 144971:18.956271 157640:8.6475303 160629:21.463718 177797:17.3356 191157:12.611318 210333:18.805495 218801:22.557539 226576:20.639258 275720:26.8776 276173:12.572871 277617:13.278386 280438:40.029778 285320:7.6996768 340468:61.209147 
2.856011995458685 44290:52.808293 49086:68.919058 72114:85.687004 89124:112.33029 114577:69.830156 122755:96.037651 129960:109.85091 151606:132.23872 197484:118.31914 
25.18837516899779 13725:14.433512 49086:58.150455 56683:24.612917 68155:24.697764 94966:18.195927 113560:10.698277 143810:16.920508 147156:14.16608 160441:12.974162 171871:47.87599 204388:22.310348 220724:17.482181 235173:25.402263 243524:25.26179 248849:20.627097 259230:46.842287 261584:18.181642 263776:13.579121 267574:35.925063 285320:13.474434 285569:24.503257 293564:12.69547 310129:19.815011 310901:15.65581 310908:17.740396 312394:6.5278358 340468:26.779002 
19.59007030189302 7462:7.9696595 9332:6.3720561 13858:5.358293 22946:7.3651265 28334:5.9062776 29968:5.1113879 31322:9.6501933 35257:4.061369 36363:3.6878324 36665:3.9178746 48269:12.576714 48802:5.9745591 50053:6.4920737 56683:7.8761335 63630:5.923866 67194:6.4943134 69170:8.9570462 87008:3.8064964 89378:5.8394813 92985:9.7042606 97690:4.8151654 101099:7.6967925 106060:7.3114286 108790:4.121391 108824:4.5737046 113623:9.3757565 113968:6.7310011 118712:5.3801279 120890:4.7119182 128443:8.6433886 129467:10.985194 134048:3.4097123 136769:7.9125011 140035:8.5341893 141742:9.1288964 149693:5.2642271 152101:4.5328301 153443:4.3427076 157640:7.2639255 158018:7.6041997 167671:10.17788 167746:4.0434243 172988:14.392939 175870:12.594632 183711:7.1652867 191608:4.6811113 194037:12.594632 201858:9.5989001 202491:9.2273365 207388:7.4706683 208394:6.5192863 208730:3.8660443 212990:3.7636317 223689:5.3153135 229402:10.397408 232114:7.5383865 240854:8.1287242 241368:8.4674979 243257:10.985194 243359:8.5872991 247045:5.266195 250362:6.325536 253100:10.292047 253164:18.19564 267768:10.648722 270166:7.214735 276175:2.59588 288988:6.1910581 290077:8.9004869 295501:8.4674979 299509:7.2522981 302135:10.985194 303542:2.5756755 303707:10.648722 304265:6.4184936 307175:9.8806128 312394:4.1778149 321913:6.9634205 322189:5.390483 328992:6.2043917 333545:4.0328483 336533:8.9570462 337652:9.1934349 
5.624060633222562 25187:136.87676 178492:186.80563 202208:92.78863 261584:96.968756 301735:133.83807 333545:67.214138 
40 3832:19.530659 20118:18.4981 29968:14.603965 44759:13.257886 48269:17.966734 49086:70.888174 51263:8.3613927 59699:12.466447 92985:27.726459 119615:17.325013 128085:16.770282 129467:31.38627 129519:31.507225 135138:17.641821 151806:10.814907 171871:43.772334 172249:10.01781 209425:19.330533 277617:10.622709 279989:20.790035 285320:18.479224 286718:18.894909 297229:21.277537 310524:24.734102 312394:5.9683071 331097:10.551021 337825:20.818185 
25.89566391271798 19630:14.108117 49086:16.764095 65528:19.989555 65989:25.233881 67118:25.433369 88297:20.207131 95901:15.633756 110549:21.620304 120222:25.565238 135138:16.688209 135693:22.264658 150935:16.227922 157640:6.544077 157859:17.184494 159985:10.164535 172493:40.286318 176938:12.572743 177050:21.969525 189763:19.733318 194919:24.672693 196317:19.915907 200807:22.557127 208566:21.566248 216448:12.638831 220724:15.119724 227573:15.996781 236508:25.685378 239688:9.1367535 241959:15.703176 251799:31.070324 254184:14.591068 273537:17.060448 276174:9.0942745 285320:5.8267824 317323:10.468089 
40 29968:18.254957 48269:22.458418 52534:35.555625 87008:13.59463 89378:10.427645 120890:8.4141396 124056:19.94078 134048:12.177544 152578:22.317843 157640:8.6475303 172493:26.617746 202208:19.883278 202922:31.155112 205601:31.081472 222912:37.133599 233174:18.724402 235173:29.031158 254184:19.281054 257446:21.584114 271227:14.682867 276173:6.2864354 285320:7.6996768 288722:15.967065 292438:21.38565 312394:7.4603838 312517:32.182548 340468:61.209147 
31.05748844258338 13725:25.659578 48269:34.935317 72112:60.01596 81762:25.231663 96446:25.02861 110572:31.967143 113560:19.019159 128215:37.316092 147963:35.90781 152101:25.182389 152578:34.716644 186019:23.02701 187703:42.801573 205601:48.348956 252016:27.877903 271227:22.840015 292871:38.567462 306020:27.909299 
1.270309403230216 1392:27.379635 9332:13.852296 10730:17.027083 25151:15.973061 29968:22.223426 34457:12.670523 34669:23.484506 48269:13.670341 49086:67.420818 51725:13.398481 68278:14.34387 68878:24.365952 81275:24.365952 82965:17.67114 134045:7.2376748 143810:11.770788 150828:8.2996694 152568:8.2876293 160441:9.0255038 167746:8.7900527 177805:20.636866 199191:19.914446 204690:16.732158 218801:13.730676 227238:10.578732 231397:14.512475 238895:14.70163 254184:11.736294 285320:14.060279 295386:19.254267 307175:7.1598643 309198:10.471391 312394:4.5411032 315032:7.9635055 315978:8.1939552 322419:18.628871 324845:18.442953 333545:8.7670614 
23.41226213063953 13623:25.615071 49086:40.017517 65379:22.715073 72112:34.847977 75069:21.970346 110890:25.211319 116604:35.436111 127980:17.422408 138217:25.494466 201106:27.529643 202208:17.95909 208698:19.709668 222260:32.114758 230502:18.400075 258298:36.155929 261485:15.599586 268885:18.617246 276173:5.6780707 283876:28.648581 289932:25.584494 296684:25.708579 300084:16.804521 310393:17.780915 310695:18.034381 312394:13.476822 318428:24.004325 336472:16.599085 338650:19.382131 339732:20.593652 
1.734586362667444 46859:90.02394 49086:51.689293 67118:78.419553 89378:24.331172 129442:57.47949 172493:62.108073 202208:46.394315 212751:104.95527 254184:44.989126 307175:27.446147 333545:33.607069 
22.69660312689237 10730:17.027083 33000:16.560649 48269:27.340683 49086:13.484164 51263:6.3619292 51725:13.398481 57783:14.285184 67118:51.143187 71901:12.826564 93720:11.850032 97690:10.467751 126127:19.159899 135138:13.423125 136615:23.880857 151076:14.727281 157640:10.527428 166591:23.880857 169057:20.761108 183387:20.296817 185486:27.379635 189736:19.914446 197602:10.640848 236462:17.964998 247668:17.646295 251520:20.761108 253164:26.370493 259256:17.880836 264294:13.409008 276173:3.8265259 278439:24.991348 285320:4.6867598 285716:23.880857 286480:20.296817 294127:13.81806 310740:16.668214 318937:22.982998 
11.04902788569285 873:16.697563 19791:28.406284 24997:31.957849 29968:40.891103 36353:42.060763 62540:38.600773 80221:35.907355 83530:13.976427 96217:19.866405 120890:9.4238363 126178:29.651395 173295:39.8223 211535:30.256778 232590:32.607924 239688:27.04479 243242:12.954883 254184:21.59478 267561:19.78357 296831:82.336378 303099:25.448737 308545:35.623011 
5.760876738923941 38102:95.800167 41542:91.543287 69544:95.800167 100841:81.850363 102489:54.137984 134012:47.92402 138386:41.876838 162061:50.59225 214741:42.69391 227403:79.990834 299509:60.435817 313305:75.092612 
18.08579872834086 24992:10.61982 29968:15.489054 30026:22.767357 34739:32.735978 55642:17.528757 68878:33.96466 115307:17.366148 120890:7.1392699 136863:14.782338 140420:32.735978 144888:29.580058 153288:36.065106 157640:7.3372985 159593:19.868974 166417:27.759531 184250:24.702973 194125:23.346313 196251:10.195125 202208:16.87066 212970:20.657515 216448:14.170811 216961:31.188022 263052:22.346292 285320:19.599177 288247:17.525418 293564:12.310759 304488:16.466019 312394:6.3300226 324654:17.456132 326130:27.479612 333545:12.220752 
28.42154012761626 10730:13.275353 19451:10.8136 33639:10.181495 48269:21.316465 49086:10.513077 61521:4.3690285 65379:11.935039 67118:15.94974 78677:8.7705973 85557:15.137408 89485:9.2177215 95307:19.48478 115516:21.346834 116312:14.464728 117099:15.824637 120890:3.993151 129971:11.941621 130388:12.244058 136863:8.2680873 141114:8.3468989 148447:27.673951 149718:20.172009 167746:6.8532614 171084:10.327699 177805:8.0448801 186537:14.195126 208730:6.5526175 214698:25.304182 220724:9.4818608 222674:17.876081 226570:9.6678359 230502:9.6678359 234187:10.451741 239688:5.7298284 244005:8.519073 244724:6.5272893 246563:4.4708366 253607:14.785477 255695:8.8127539 261612:15.181434 276173:2.9833931 276175:4.3997967 276176:8.621006 285320:3.6540839 286331:16.447899 295215:17.282605 299071:10.284979 299703:11.928482 301852:12.137136 306215:20.172009 315467:12.71336 326160:13.816917 333545:6.835336 337950:10.621518 
0.6319496067165378 13441:78.716452 69588:40.275185 83530:21.838168 93720:34.068842 131345:35.172907 157640:30.266356 220560:48.589692 230063:37.136058 263377:74.384282 273904:68.657465 310905:32.613276 310907:37.241786 312264:42.762873 322189:33.690519 333545:25.205302 
40 48269:83.844761 67194:43.295422 82567:48.709102 95523:40.55258 124056:37.222789 134048:22.731416 157640:16.142057 202208:37.115452 206359:35.178374 239688:45.07465 270913:56.668585 289217:72.019152 333545:26.885655 
13.28398962042985 11534:45.953299 22992:46.782033 33639:27.30492 48269:57.166882 49086:56.38832 54935:39.466406 124155:50.946991 132380:30.888817 171871:34.818902 197602:22.249045 202208:25.30599 254184:24.539523 276173:8.0009178 285320:19.599177 293564:18.466139 311687:27.311185 312394:9.4950339 326160:74.108919 
3.922470074043529 29968:46.467163 59699:39.665966 67194:59.039212 88666:58.877592 135138:56.133067 161936:71.601213 168483:99.865404 176695:40.549619 299509:65.929982 312394:37.980136 
30.80883672324746 9440:34.183485 31373:48.555891 51725:29.349054 78950:33.976413 82965:38.708211 87008:18.126173 118795:35.193455 124056:26.587706 134048:16.236725 135138:29.403035 157640:23.060081 196221:33.108215 259335:54.742953 276173:8.3819139 285320:20.532471 299509:34.534753 322189:25.668967 329338:45.043515 331396:31.077175 
40 266:6.5914574 23303:5.0029015 36665:3.5296167 42610:5.9309596 43717:3.8392814 44757:17.331209 45863:5.4142711 48269:33.991119 49086:27.940159 54085:3.9680678 56683:7.0956157 63071:8.5985362 63630:5.3368162 65908:7.2630926 67175:5.6171698 70421:6.175531 71901:2.6577566 81762:8.183242 87008:3.429276 88003:4.6993231 94504:5.0589973 110833:10.722059 113091:7.3655781 126127:3.9700693 127174:11.70551 134045:2.9993968 142457:4.9958356 146034:7.03346 147156:4.0839148 147745:4.9787931 148726:7.6430256 157640:4.362718 159593:5.9069923 160441:3.7402989 160654:16.505667 167671:9.1692611 180275:4.2395701 181259:6.1193819 184626:5.3187298 186887:4.2849451 190468:17.295315 196089:3.2016002 197857:6.5868726 199191:8.2528334 199273:6.0166038 202655:4.3733359 205043:9.5934434 205887:9.5934434 212990:3.3906592 215721:7.8111246 218185:5.9331704 219987:6.9075483 222674:4.7508502 242062:6.6924774 242548:8.3772932 243242:2.9177665 245103:9.367034 246563:2.3763906 255685:7.1367599 266423:7.0039196 267561:4.455759 268043:3.3777362 269127:7.8972891 271227:3.7037863 276173:1.5857675 276174:3.0314248 279369:7.1977136 280571:9.4731449 284170:5.2539665 284907:4.5637505 288247:5.2102594 294069:5.9832333 298805:4.5328214 299703:6.3403642 300006:10.097602 301535:6.0239184 303099:5.7316976 303542:2.3204284 304209:5.7513804 307886:5.1278285 310904:4.0670224 312388:3.9783726 312394:1.8818986 313493:6.5207622 330523:5.1582143 331322:4.5493435 333545:3.6331966 338875:4.239908 340468:7.7200726 
40 36665:10.045832 42755:11.019454 49086:15.904398 61521:6.6095559 67118:12.064547 67194:33.304171 68902:15.378171 71901:7.5643842 81762:11.645383 95523:15.597146 97345:23.035165 115539:13.313284 120549:30.516629 135138:15.832404 138217:20.264832 157640:12.416967 160441:10.645466 170513:14.877661 183491:9.9258348 196317:18.894579 202876:18.583397 230502:14.625701 230540:13.313284 245656:21.189485 265435:18.813172 276173:4.5133382 285320:5.5279731 288247:14.8292 292141:19.773924 296943:25.350211 310524:11.098636 310904:11.575372 312388:11.32306 329338:24.2542 332392:15.608602 334254:13.704376 335210:27.699674 
2.330793301199176 21834:107.34124 48269:157.20893 191608:58.513891 202208:69.591473 212758:68.488127 290743:95.842233 333545:50.410603 
13.92696321006299 13623:14.704948 19451:11.81486 27749:12.529049 32612:14.635712 48269:46.580423 49086:22.973019 50110:10.784894 65539:10.509164 67194:12.026506 95054:18.882846 101332:13.856749 102836:12.921965 107870:20.756181 111363:16.492135 120890:4.3628872 124056:10.339664 128076:9.7853373 128081:22.039787 130616:11.665493 139386:12.949099 157640:8.9678092 163788:23.323393 177805:8.7897764 177848:9.904193 182087:7.1953654 182568:13.135878 187257:14.382071 188014:9.0829697 191608:8.6687246 200078:21.288926 202208:10.309848 223272:11.008062 223549:12.798245 223689:9.8431731 230063:11.003276 264294:11.422489 266423:14.396946 268456:21.288926 284909:23.323393 285320:3.992425 289217:20.00532 298805:9.3174662 300084:9.6470396 310393:10.207563 312394:3.8683472 313493:13.403789 325996:7.9025736 333545:14.936475 
5.871586337846334 33639:60.070823 147156:45.331455 157859:63.582627 199191:91.606451 209459:68.743205 235173:81.287242 310540:64.988078 312394:20.889075 315978:37.692194 340468:85.692806 
8.007541323085947 48269:26.201488 49086:25.844647 51263:12.193698 58267:23.560041 67118:19.604888 96652:36.524962 126178:30.88687 141076:23.895906 151806:15.771739 157640:10.088785 172493:31.054037 177805:19.776997 236407:19.99406 261584:48.484378 276173:7.3341746 294069:27.672454 303099:26.509101 313076:35.780413 331610:31.383489 333545:33.607069 335703:22.260743 340468:35.705336 
36.61082415927942 28685:21.030382 44759:9.2805201 48269:12.576714 49086:12.40543 56683:15.752267 57699:12.95748 67118:9.4103464 83530:6.9882136 89378:5.8394813 96040:10.208206 119615:12.127509 129519:11.027529 141554:19.644087 147156:9.0662909 159047:12.304184 159593:13.113523 163066:7.5422632 167567:12.323384 172493:14.905938 186537:16.750249 190468:19.1978 196251:6.7287826 197602:9.7895798 201605:5.7779723 202208:11.134636 209181:10.549535 227122:15.959024 243242:6.4774417 262595:12.776113 264611:4.5335196 280382:22.99204 283327:18.673072 285320:12.935457 286987:11.34004 293798:11.4388 295553:17.248681 298805:10.062863 303099:25.448737 312394:12.533445 318007:11.970566 320959:9.4766255 326160:16.303962 326427:14.622857 329408:13.052413 340468:17.138561 
2.027008649209654 7169:13.809345 10753:16.130421 12423:6.5730975 19610:13.767042 29968:10.648725 33018:23.350704 44339:14.702704 49086:38.76697 55430:15.57633 64573:19.084677 74038:64.983798 79174:34.065799 88878:19.799146 97690:10.031594 99172:21.906647 118456:11.572858 129964:20.104569 137781:26.238817 145087:15.490785 153443:9.0473075 165518:22.885822 195077:18.452006 207761:12.678882 209341:19.799146 212873:13.394197 212990:3.9204497 214217:21.243202 215462:16.665651 229201:19.372491 230502:11.883382 247048:19.223618 250131:14.891448 264859:12.863828 271544:24.794761 276175:5.4080834 285320:8.9829563 288377:24.794761 312394:8.7037811 324492:23.350704 333440:19.372491 340589:19.997708 
18.18218497061022 42349:38.870823 57354:28.294233 64219:25.330254 71187:31.619444 77133:24.32652 113560:15.56113 133543:21.33466 143571:42.267252 147156:20.605207 150935:27.292415 186521:22.085282 196251:15.292688 202208:25.30599 212990:8.5537084 219753:15.936399 244162:28.081364 267903:37.453902 288837:36.454188 299509:32.964991 304304:40.368456 312549:30.468128 
8.188499895988448 2886:32.379291 23558:42.594889 44757:25.65019 49243:27.35556 54085:17.618221 56683:31.504534 75832:39.288174 78950:28.540187 118635:35.427851 153735:27.43224 157106:26.834113 162602:38.817042 167746:48.521091 172493:29.811875 175437:34.001151 209127:32.850423 226581:25.219667 263776:17.381274 284899:50.378529 301735:32.121137 322189:21.561932 331809:48.651218 
28.35993292636689 49086:68.919058 67118:17.426567 77281:18.675537 101843:22.640945 126124:29.37479 128085:43.478509 148276:44.630747 152607:26.009179 171871:28.370957 201605:10.699949 216045:15.796201 224598:30.325604 238078:14.419577 246571:40.685905 251024:15.301752 252016:18.585269 261485:17.910636 269948:27.292169 300084:19.294079 304265:11.886099 306020:18.606199 307175:12.198287 330987:31.608109 
14.9255798943462 24992:38.939339 56683:87.512594 67118:52.279702 181664:61.152472 212990:20.909065 215462:88.883472 242339:113.29708 310393:61.245375 310524:48.094088 
4.82578691422463 3832:34.178653 19934:49.110218 49086:62.027152 63354:53.243611 120890:11.779795 128568:25.049296 130985:59.507426 134045:16.646652 139386:34.962568 148276:30.125755 157640:12.106542 183491:19.355378 202208:27.836589 276173:8.8010095 285320:10.779548 293940:25.434711 312394:10.444537 325996:21.336949 333545:20.164241 
17.28020842982521 32598:22.419054 34739:33.758978 37946:31.864803 59699:13.635176 72112:33.758978 79867:25.296321 84208:26.563399 87663:33.758978 87709:39.358226 120890:14.724744 132303:26.83531 157640:7.566589 159985:11.752744 180275:14.706009 218689:35.925063 245023:18.097272 252379:13.570147 252923:19.656824 252924:19.566727 264611:7.0836243 290077:13.907011 290461:13.506443 302874:24.029242 308021:23.25419 313493:22.618894 315894:22.994345 316936:37.209063 322189:16.845259 333545:12.602651 340468:26.779002 
18.28327626307281 22946:14.730253 44757:25.65019 55967:89.666704 56650:27.098198 71901:11.800439 72839:36.273087 94966:23.290787 120340:38.014359 120890:9.4238363 123158:30.555221 205219:50.378529 212990:7.5272634 215462:31.99805 254184:21.59478 279347:20.943206 285320:8.623638 286170:42.060763 289255:39.288174 295352:29.20531 299703:28.151217 306704:21.939011 312388:17.663974 321590:33.442103 330295:29.765363 
14.32575961624961 9332:53.100467 48269:52.402975 56683:65.634445 96446:75.085831 140420:90.02394 152101:37.773584 203087:56.380723 252016:41.816855 254184:44.989126 307175:27.446147 311058:64.853733 
40 9332:53.100467 48269:52.402975 56683:65.634445 96446:75.085831 140420:90.02394 152101:37.773584 203087:56.380723 252016:41.816855 254184:44.989126 307175:27.446147 311058:64.853733 
